digraph Tree {
node [shape=box, style="filled", color="black"] ;
rankdir=LR ;
0 [label=<y_minmax &le; 17.038<br/>gini = 0.913<br/>samples = 3564<br/>value = [377, 271, 240, 212, 320, 498, 98, 120, 113, 251<br/>201, 198, 206, 459]>, fillcolor="#fdfffe"] ;
1 [label=<y_rms &le; 37.302<br/>gini = 0.902<br/>samples = 2629<br/>value = [86, 235, 51, 166, 273, 437, 94, 87, 81, 204, 148<br/>173, 181, 413]>, fillcolor="#fdfffe"] ;
0 -> 1 [labeldistance=2.5, labelangle=-45, headlabel="True"] ;
2 [label=<y_std &le; 3.638<br/>gini = 0.896<br/>samples = 2255<br/>value = [85, 232, 51, 163, 143, 382, 91, 86, 76, 202, 134<br/>165, 39, 406]>, fillcolor="#fffcfd"] ;
1 -> 2 ;
3 [label=<x_mean &le; 16.507<br/>gini = 0.889<br/>samples = 2021<br/>value = [74, 217, 44, 147, 101, 374, 84, 69, 65, 168, 120<br/>141, 30, 387]>, fillcolor="#fffdfd"] ;
2 -> 3 ;
4 [label=<z_minmax &le; 17.352<br/>gini = 0.766<br/>samples = 948<br/>value = [6, 207, 32, 143, 0, 0, 0, 41, 24, 0, 43, 85, 0<br/>367]>, fillcolor="#f9d4d5"] ;
3 -> 4 ;
5 [label=<x_std &le; 5.087<br/>gini = 0.749<br/>samples = 894<br/>value = [6, 202, 32, 139, 0, 0, 0, 29, 11, 0, 37, 75, 0<br/>363]>, fillcolor="#f9d1d2"] ;
4 -> 5 ;
6 [label=<x_std &le; 0.708<br/>gini = 0.69<br/>samples = 738<br/>value = [5, 182, 30, 16, 0, 0, 0, 29, 11, 0, 35, 74, 0<br/>356]>, fillcolor="#f7c1c2"] ;
5 -> 6 ;
7 [label=<x_rms &le; 12.288<br/>gini = 0.703<br/>samples = 37<br/>value = [0, 0, 8, 0, 0, 0, 0, 4, 1, 0, 6, 17, 0, 1]>, fillcolor="#f7c2f1"] ;
6 -> 7 ;
8 [label=<y_z &le; 0.289<br/>gini = 0.715<br/>samples = 19<br/>value = [0, 0, 6, 0, 0, 0, 0, 4, 0, 0, 1, 7, 0, 1]>, fillcolor="#fdf0fb"] ;
7 -> 8 ;
9 [label=<y_mean &le; 35.808<br/>gini = 0.727<br/>samples = 16<br/>value = [0, 0, 6, 0, 0, 0, 0, 4, 0, 0, 1, 4, 0, 1]>, fillcolor="#f3fbde"] ;
8 -> 9 ;
10 [label=<gini = 0.612<br/>samples = 7<br/>value = [0, 0, 1, 0, 0, 0, 0, 4, 0, 0, 0, 1, 0, 1]>, fillcolor="#9ccef2"] ;
9 -> 10 ;
11 [label=<gini = 0.568<br/>samples = 9<br/>value = [0, 0, 5, 0, 0, 0, 0, 0, 0, 0, 1, 3, 0, 0]>, fillcolor="#e7f6bd"] ;
9 -> 11 ;
12 [label=<gini = 0.0<br/>samples = 3<br/>value = [0, 0, 0, 0, 0, 0, 0, 0, 0, 0, 0, 3, 0, 0]>, fillcolor="#e539d1"] ;
8 -> 12 ;
13 [label=<x_rms &le; 12.51<br/>gini = 0.599<br/>samples = 18<br/>value = [0, 0, 2, 0, 0, 0, 0, 0, 1, 0, 5, 10, 0, 0]>, fillcolor="#f5b3ed"] ;
7 -> 13 ;
14 [label=<x_rms &le; 12.384<br/>gini = 0.625<br/>samples = 4<br/>value = [0, 0, 2, 0, 0, 0, 0, 0, 1, 0, 0, 1, 0, 0]>, fillcolor="#e7f6bd"] ;
13 -> 14 ;
15 [label=<gini = 0.0<br/>samples = 2<br/>value = [0, 0, 2, 0, 0, 0, 0, 0, 0, 0, 0, 0, 0, 0]>, fillcolor="#b7e539"] ;
14 -> 15 ;
16 [label=<gini = 0.5<br/>samples = 2<br/>value = [0, 0, 0, 0, 0, 0, 0, 0, 1, 0, 0, 1, 0, 0]>, fillcolor="#ffffff"] ;
14 -> 16 ;
17 [label=<x_rms &le; 12.649<br/>gini = 0.459<br/>samples = 14<br/>value = [0, 0, 0, 0, 0, 0, 0, 0, 0, 0, 5, 9, 0, 0]>, fillcolor="#f3a7eb"] ;
13 -> 17 ;
18 [label=<gini = 0.0<br/>samples = 1<br/>value = [0, 0, 0, 0, 0, 0, 0, 0, 0, 0, 1, 0, 0, 0]>, fillcolor="#b139e5"] ;
17 -> 18 ;
19 [label=<gini = 0.426<br/>samples = 13<br/>value = [0, 0, 0, 0, 0, 0, 0, 0, 0, 0, 4, 9, 0, 0]>, fillcolor="#f191e5"] ;
17 -> 19 ;
20 [label=<x_std &le; 3.321<br/>gini = 0.665<br/>samples = 701<br/>value = [5, 182, 22, 16, 0, 0, 0, 25, 10, 0, 29, 57, 0<br/>355]>, fillcolor="#f6bdbe"] ;
6 -> 20 ;
21 [label=<x_std &le; 1.57<br/>gini = 0.742<br/>samples = 270<br/>value = [5, 12, 16, 0, 0, 0, 0, 25, 10, 0, 29, 56, 0<br/>117]>, fillcolor="#f8c7c7"] ;
20 -> 21 ;
22 [label=<y_integration &le; 15.261<br/>gini = 0.793<br/>samples = 115<br/>value = [5, 4, 14, 0, 0, 0, 0, 10, 5, 0, 23, 41, 0<br/>13]>, fillcolor="#fad8f6"] ;
21 -> 22 ;
23 [label=<gini = 0.727<br/>samples = 11<br/>value = [1, 1, 5, 0, 0, 0, 0, 2, 0, 0, 1, 0, 0, 1]>, fillcolor="#e7f6bd"] ;
22 -> 23 ;
24 [label=<gini = 0.768<br/>samples = 104<br/>value = [4, 3, 9, 0, 0, 0, 0, 8, 5, 0, 22, 41, 0, 12]>, fillcolor="#f9d1f4"] ;
22 -> 24 ;
25 [label=<z_std &le; 2.872<br/>gini = 0.526<br/>samples = 155<br/>value = [0, 8, 2, 0, 0, 0, 0, 15, 5, 0, 6, 15, 0, 104]>, fillcolor="#ee8183"] ;
21 -> 25 ;
26 [label=<gini = 0.421<br/>samples = 129<br/>value = [0, 7, 2, 0, 0, 0, 0, 7, 3, 0, 3, 10, 0, 97]>, fillcolor="#ec6e70"] ;
25 -> 26 ;
27 [label=<gini = 0.775<br/>samples = 26<br/>value = [0, 1, 0, 0, 0, 0, 0, 8, 2, 0, 3, 5, 0, 7]>, fillcolor="#f5fafe"] ;
25 -> 27 ;
28 [label=<x_minmax &le; 13.404<br/>gini = 0.538<br/>samples = 431<br/>value = [0, 170, 6, 16, 0, 0, 0, 0, 0, 0, 0, 1, 0<br/>238]>, fillcolor="#f8cbcc"] ;
20 -> 28 ;
29 [label=<y_z &le; 0.701<br/>gini = 0.255<br/>samples = 14<br/>value = [0, 0, 1, 1, 0, 0, 0, 0, 0, 0, 0, 0, 0, 12]>, fillcolor="#e9575a"] ;
28 -> 29 ;
30 [label=<gini = 0.142<br/>samples = 13<br/>value = [0, 0, 0, 1, 0, 0, 0, 0, 0, 0, 0, 0, 0, 12]>, fillcolor="#e7494c"] ;
29 -> 30 ;
31 [label=<gini = 0.0<br/>samples = 1<br/>value = [0, 0, 1, 0, 0, 0, 0, 0, 0, 0, 0, 0, 0, 0]>, fillcolor="#b7e539"] ;
29 -> 31 ;
32 [label=<y_kurtosis &le; 5.385<br/>gini = 0.539<br/>samples = 417<br/>value = [0, 170, 5, 15, 0, 0, 0, 0, 0, 0, 0, 1, 0<br/>226]>, fillcolor="#f9d2d3"] ;
28 -> 32 ;
33 [label=<gini = 0.534<br/>samples = 409<br/>value = [0, 166, 4, 14, 0, 0, 0, 0, 0, 0, 0, 1, 0<br/>224]>, fillcolor="#f9d0d0"] ;
32 -> 33 ;
34 [label=<gini = 0.656<br/>samples = 8<br/>value = [0, 4, 1, 1, 0, 0, 0, 0, 0, 0, 0, 0, 0, 2]>, fillcolor="#f6edbd"] ;
32 -> 34 ;
35 [label=<y_mean &le; 36.961<br/>gini = 0.359<br/>samples = 156<br/>value = [1, 20, 2, 123, 0, 0, 0, 0, 0, 0, 2, 1, 0, 7]>, fillcolor="#90eb69"] ;
5 -> 35 ;
36 [label=<x_y &le; -0.304<br/>gini = 0.56<br/>samples = 57<br/>value = [0, 18, 0, 33, 0, 0, 0, 0, 0, 0, 1, 1, 0, 4]>, fillcolor="#c7f5b3"] ;
35 -> 36 ;
37 [label=<x_integration &le; 27.234<br/>gini = 0.332<br/>samples = 19<br/>value = [0, 4, 0, 15, 0, 0, 0, 0, 0, 0, 0, 0, 0, 0]>, fillcolor="#94ec6e"] ;
36 -> 37 ;
38 [label=<gini = 0.0<br/>samples = 12<br/>value = [0, 0, 0, 12, 0, 0, 0, 0, 0, 0, 0, 0, 0, 0]>, fillcolor="#6de539"] ;
37 -> 38 ;
39 [label=<x_std &le; 5.982<br/>gini = 0.49<br/>samples = 7<br/>value = [0, 4, 0, 3, 0, 0, 0, 0, 0, 0, 0, 0, 0, 0]>, fillcolor="#f8f1ce"] ;
37 -> 39 ;
40 [label=<gini = 0.444<br/>samples = 6<br/>value = [0, 4, 0, 2, 0, 0, 0, 0, 0, 0, 0, 0, 0, 0]>, fillcolor="#f2e49c"] ;
39 -> 40 ;
41 [label=<gini = 0.0<br/>samples = 1<br/>value = [0, 0, 0, 1, 0, 0, 0, 0, 0, 0, 0, 0, 0, 0]>, fillcolor="#6de539"] ;
39 -> 41 ;
42 [label=<x_std &le; 5.865<br/>gini = 0.627<br/>samples = 38<br/>value = [0, 14, 0, 18, 0, 0, 0, 0, 0, 0, 1, 1, 0, 4]>, fillcolor="#e7fbde"] ;
36 -> 42 ;
43 [label=<x_integration &le; 30.404<br/>gini = 0.46<br/>samples = 20<br/>value = [0, 14, 0, 4, 0, 0, 0, 0, 0, 0, 0, 0, 0, 2]>, fillcolor="#efdd83"] ;
42 -> 43 ;
44 [label=<gini = 0.571<br/>samples = 14<br/>value = [0, 8, 0, 4, 0, 0, 0, 0, 0, 0, 0, 0, 0, 2]>, fillcolor="#f5e9b0"] ;
43 -> 44 ;
45 [label=<gini = 0.0<br/>samples = 6<br/>value = [0, 6, 0, 0, 0, 0, 0, 0, 0, 0, 0, 0, 0, 0]>, fillcolor="#e5c839"] ;
43 -> 45 ;
46 [label=<x_integration &le; 7.774<br/>gini = 0.377<br/>samples = 18<br/>value = [0, 0, 0, 14, 0, 0, 0, 0, 0, 0, 1, 1, 0, 2]>, fillcolor="#92ec6a"] ;
42 -> 46 ;
47 [label=<gini = 0.5<br/>samples = 2<br/>value = [0, 0, 0, 0, 0, 0, 0, 0, 0, 0, 1, 1, 0, 0]>, fillcolor="#ffffff"] ;
46 -> 47 ;
48 [label=<gini = 0.219<br/>samples = 16<br/>value = [0, 0, 0, 14, 0, 0, 0, 0, 0, 0, 0, 0, 0, 2]>, fillcolor="#82e955"] ;
46 -> 48 ;
49 [label=<z_rms &le; 16.783<br/>gini = 0.172<br/>samples = 99<br/>value = [1, 2, 2, 90, 0, 0, 0, 0, 0, 0, 1, 0, 0, 3]>, fillcolor="#7be74c"] ;
35 -> 49 ;
50 [label=<x_integration &le; 19.937<br/>gini = 0.14<br/>samples = 95<br/>value = [1, 2, 1, 88, 0, 0, 0, 0, 0, 0, 0, 0, 0, 3]>, fillcolor="#78e748"] ;
49 -> 50 ;
51 [label=<x_kurtosis &le; 1.197<br/>gini = 0.667<br/>samples = 3<br/>value = [1, 0, 1, 1, 0, 0, 0, 0, 0, 0, 0, 0, 0, 0]>, fillcolor="#ffffff"] ;
50 -> 51 ;
52 [label=<gini = 0.5<br/>samples = 2<br/>value = [1, 0, 0, 1, 0, 0, 0, 0, 0, 0, 0, 0, 0, 0]>, fillcolor="#ffffff"] ;
51 -> 52 ;
53 [label=<gini = 0.0<br/>samples = 1<br/>value = [0, 0, 1, 0, 0, 0, 0, 0, 0, 0, 0, 0, 0, 0]>, fillcolor="#b7e539"] ;
51 -> 53 ;
54 [label=<x_kurtosis &le; -1.202<br/>gini = 0.104<br/>samples = 92<br/>value = [0, 2, 0, 87, 0, 0, 0, 0, 0, 0, 0, 0, 0, 3]>, fillcolor="#75e644"] ;
50 -> 54 ;
55 [label=<gini = 0.0<br/>samples = 25<br/>value = [0, 0, 0, 25, 0, 0, 0, 0, 0, 0, 0, 0, 0, 0]>, fillcolor="#6de539"] ;
54 -> 55 ;
56 [label=<gini = 0.141<br/>samples = 67<br/>value = [0, 2, 0, 62, 0, 0, 0, 0, 0, 0, 0, 0, 0, 3]>, fillcolor="#78e748"] ;
54 -> 56 ;
57 [label=<z_mean &le; 35.604<br/>gini = 0.625<br/>samples = 4<br/>value = [0, 0, 1, 2, 0, 0, 0, 0, 0, 0, 1, 0, 0, 0]>, fillcolor="#cef6bd"] ;
49 -> 57 ;
58 [label=<gini = 0.0<br/>samples = 2<br/>value = [0, 0, 0, 2, 0, 0, 0, 0, 0, 0, 0, 0, 0, 0]>, fillcolor="#6de539"] ;
57 -> 58 ;
59 [label=<y_minmax &le; 14.864<br/>gini = 0.5<br/>samples = 2<br/>value = [0, 0, 1, 0, 0, 0, 0, 0, 0, 0, 1, 0, 0, 0]>, fillcolor="#ffffff"] ;
57 -> 59 ;
60 [label=<gini = 0.0<br/>samples = 1<br/>value = [0, 0, 0, 0, 0, 0, 0, 0, 0, 0, 1, 0, 0, 0]>, fillcolor="#b139e5"] ;
59 -> 60 ;
61 [label=<gini = 0.0<br/>samples = 1<br/>value = [0, 0, 1, 0, 0, 0, 0, 0, 0, 0, 0, 0, 0, 0]>, fillcolor="#b7e539"] ;
59 -> 61 ;
62 [label=<z_rms &le; 18.573<br/>gini = 0.826<br/>samples = 54<br/>value = [0, 5, 0, 4, 0, 0, 0, 12, 13, 0, 6, 10, 0, 4]>, fillcolor="#fafbfe"] ;
4 -> 62 ;
63 [label=<y_std &le; 1.294<br/>gini = 0.826<br/>samples = 52<br/>value = [0, 5, 0, 4, 0, 0, 0, 12, 13, 0, 6, 8, 0, 4]>, fillcolor="#fafbfe"] ;
62 -> 63 ;
64 [label=<x_minmax &le; 22.836<br/>gini = 0.656<br/>samples = 8<br/>value = [0, 0, 0, 0, 0, 0, 0, 3, 0, 0, 2, 3, 0, 0]>, fillcolor="#ffffff"] ;
63 -> 64 ;
65 [label=<z_mean &le; 35.606<br/>gini = 0.611<br/>samples = 6<br/>value = [0, 0, 0, 0, 0, 0, 0, 3, 0, 0, 1, 2, 0, 0]>, fillcolor="#cee6f8"] ;
64 -> 65 ;
66 [label=<x_y &le; 0.394<br/>gini = 0.48<br/>samples = 5<br/>value = [0, 0, 0, 0, 0, 0, 0, 3, 0, 0, 0, 2, 0, 0]>, fillcolor="#bddef6"] ;
65 -> 66 ;
67 [label=<gini = 0.444<br/>samples = 3<br/>value = [0, 0, 0, 0, 0, 0, 0, 1, 0, 0, 0, 2, 0, 0]>, fillcolor="#f29ce8"] ;
66 -> 67 ;
68 [label=<gini = 0.0<br/>samples = 2<br/>value = [0, 0, 0, 0, 0, 0, 0, 2, 0, 0, 0, 0, 0, 0]>, fillcolor="#399de5"] ;
66 -> 68 ;
69 [label=<gini = 0.0<br/>samples = 1<br/>value = [0, 0, 0, 0, 0, 0, 0, 0, 0, 0, 1, 0, 0, 0]>, fillcolor="#b139e5"] ;
65 -> 69 ;
70 [label=<x_mean &le; 13.797<br/>gini = 0.5<br/>samples = 2<br/>value = [0, 0, 0, 0, 0, 0, 0, 0, 0, 0, 1, 1, 0, 0]>, fillcolor="#ffffff"] ;
64 -> 70 ;
71 [label=<gini = 0.0<br/>samples = 1<br/>value = [0, 0, 0, 0, 0, 0, 0, 0, 0, 0, 1, 0, 0, 0]>, fillcolor="#b139e5"] ;
70 -> 71 ;
72 [label=<gini = 0.0<br/>samples = 1<br/>value = [0, 0, 0, 0, 0, 0, 0, 0, 0, 0, 0, 1, 0, 0]>, fillcolor="#e539d1"] ;
70 -> 72 ;
73 [label=<x_mean &le; 14.086<br/>gini = 0.82<br/>samples = 44<br/>value = [0, 5, 0, 4, 0, 0, 0, 9, 13, 0, 4, 5, 0, 4]>, fillcolor="#e8ecfc"] ;
63 -> 73 ;
74 [label=<y_z &le; 0.179<br/>gini = 0.826<br/>samples = 27<br/>value = [0, 5, 0, 4, 0, 0, 0, 6, 6, 0, 1, 3, 0, 2]>, fillcolor="#ffffff"] ;
73 -> 74 ;
75 [label=<y_integration &le; 19.281<br/>gini = 0.722<br/>samples = 13<br/>value = [0, 1, 0, 0, 0, 0, 0, 4, 5, 0, 1, 0, 0, 2]>, fillcolor="#e9ecfc"] ;
74 -> 75 ;
76 [label=<gini = 0.5<br/>samples = 2<br/>value = [0, 0, 0, 0, 0, 0, 0, 0, 0, 0, 1, 0, 0, 1]>, fillcolor="#ffffff"] ;
75 -> 76 ;
77 [label=<gini = 0.645<br/>samples = 11<br/>value = [0, 1, 0, 0, 0, 0, 0, 4, 5, 0, 0, 0, 0, 1]>, fillcolor="#e3e7fb"] ;
75 -> 77 ;
78 [label=<y_mean &le; 36.237<br/>gini = 0.765<br/>samples = 14<br/>value = [0, 4, 0, 4, 0, 0, 0, 2, 1, 0, 0, 3, 0, 0]>, fillcolor="#ffffff"] ;
74 -> 78 ;
79 [label=<gini = 0.719<br/>samples = 8<br/>value = [0, 3, 0, 0, 0, 0, 0, 2, 1, 0, 0, 2, 0, 0]>, fillcolor="#fbf6de"] ;
78 -> 79 ;
80 [label=<gini = 0.5<br/>samples = 6<br/>value = [0, 1, 0, 4, 0, 0, 0, 0, 0, 0, 0, 1, 0, 0]>, fillcolor="#a7ef88"] ;
78 -> 80 ;
81 [label=<x_y &le; 0.606<br/>gini = 0.74<br/>samples = 17<br/>value = [0, 0, 0, 0, 0, 0, 0, 3, 7, 0, 3, 2, 0, 2]>, fillcolor="#c6cff8"] ;
73 -> 81 ;
82 [label=<x_mean &le; 14.481<br/>gini = 0.673<br/>samples = 14<br/>value = [0, 0, 0, 0, 0, 0, 0, 1, 7, 0, 3, 1, 0, 2]>, fillcolor="#b7c2f6"] ;
81 -> 82 ;
83 [label=<gini = 0.0<br/>samples = 3<br/>value = [0, 0, 0, 0, 0, 0, 0, 0, 3, 0, 0, 0, 0, 0]>, fillcolor="#3956e5"] ;
82 -> 83 ;
84 [label=<gini = 0.744<br/>samples = 11<br/>value = [0, 0, 0, 0, 0, 0, 0, 1, 4, 0, 3, 1, 0, 2]>, fillcolor="#e6eafc"] ;
82 -> 84 ;
85 [label=<y_kurtosis &le; -0.007<br/>gini = 0.444<br/>samples = 3<br/>value = [0, 0, 0, 0, 0, 0, 0, 2, 0, 0, 0, 1, 0, 0]>, fillcolor="#9ccef2"] ;
81 -> 85 ;
86 [label=<gini = 0.0<br/>samples = 2<br/>value = [0, 0, 0, 0, 0, 0, 0, 2, 0, 0, 0, 0, 0, 0]>, fillcolor="#399de5"] ;
85 -> 86 ;
87 [label=<gini = 0.0<br/>samples = 1<br/>value = [0, 0, 0, 0, 0, 0, 0, 0, 0, 0, 0, 1, 0, 0]>, fillcolor="#e539d1"] ;
85 -> 87 ;
88 [label=<gini = 0.0<br/>samples = 2<br/>value = [0, 0, 0, 0, 0, 0, 0, 0, 0, 0, 0, 2, 0, 0]>, fillcolor="#e539d1"] ;
62 -> 88 ;
89 [label=<x_rms &le; 32.875<br/>gini = 0.824<br/>samples = 1073<br/>value = [68, 10, 12, 4, 101, 374, 84, 28, 41, 168, 77, 56<br/>30, 20]>, fillcolor="#d2f9e8"] ;
3 -> 89 ;
90 [label=<z_mean &le; 36.501<br/>gini = 0.869<br/>samples = 641<br/>value = [60, 7, 12, 4, 80, 134, 15, 19, 33, 132, 61, 46<br/>24, 14]>, fillcolor="#feffff"] ;
89 -> 90 ;
91 [label=<z_std &le; 5.124<br/>gini = 0.228<br/>samples = 40<br/>value = [35, 1, 0, 0, 0, 0, 0, 0, 0, 0, 1, 0, 0, 3]>, fillcolor="#e99254"] ;
90 -> 91 ;
92 [label=<x_integration &le; 19.988<br/>gini = 0.193<br/>samples = 38<br/>value = [34, 0, 0, 0, 0, 0, 0, 0, 0, 0, 1, 0, 0, 3]>, fillcolor="#e88f50"] ;
91 -> 92 ;
93 [label=<gini = 0.0<br/>samples = 9<br/>value = [9, 0, 0, 0, 0, 0, 0, 0, 0, 0, 0, 0, 0, 0]>, fillcolor="#e58139"] ;
92 -> 93 ;
94 [label=<x_z &le; 0.017<br/>gini = 0.245<br/>samples = 29<br/>value = [25, 0, 0, 0, 0, 0, 0, 0, 0, 0, 1, 0, 0, 3]>, fillcolor="#e99457"] ;
92 -> 94 ;
95 [label=<x_std &le; 5.683<br/>gini = 0.397<br/>samples = 11<br/>value = [8, 0, 0, 0, 0, 0, 0, 0, 0, 0, 0, 0, 0, 3]>, fillcolor="#efb083"] ;
94 -> 95 ;
96 [label=<gini = 0.32<br/>samples = 10<br/>value = [8, 0, 0, 0, 0, 0, 0, 0, 0, 0, 0, 0, 0, 2]>, fillcolor="#eca06a"] ;
95 -> 96 ;
97 [label=<gini = 0.0<br/>samples = 1<br/>value = [0, 0, 0, 0, 0, 0, 0, 0, 0, 0, 0, 0, 0, 1]>, fillcolor="#e5393c"] ;
95 -> 97 ;
98 [label=<y_integration &le; 20.502<br/>gini = 0.105<br/>samples = 18<br/>value = [17, 0, 0, 0, 0, 0, 0, 0, 0, 0, 1, 0, 0, 0]>, fillcolor="#e78845"] ;
94 -> 98 ;
99 [label=<gini = 0.278<br/>samples = 6<br/>value = [5, 0, 0, 0, 0, 0, 0, 0, 0, 0, 1, 0, 0, 0]>, fillcolor="#ea9a61"] ;
98 -> 99 ;
100 [label=<gini = 0.0<br/>samples = 12<br/>value = [12, 0, 0, 0, 0, 0, 0, 0, 0, 0, 0, 0, 0, 0]>, fillcolor="#e58139"] ;
98 -> 100 ;
101 [label=<x_mean &le; 20.647<br/>gini = 0.5<br/>samples = 2<br/>value = [1, 1, 0, 0, 0, 0, 0, 0, 0, 0, 0, 0, 0, 0]>, fillcolor="#ffffff"] ;
91 -> 101 ;
102 [label=<gini = 0.0<br/>samples = 1<br/>value = [0, 1, 0, 0, 0, 0, 0, 0, 0, 0, 0, 0, 0, 0]>, fillcolor="#e5c839"] ;
101 -> 102 ;
103 [label=<gini = 0.0<br/>samples = 1<br/>value = [1, 0, 0, 0, 0, 0, 0, 0, 0, 0, 0, 0, 0, 0]>, fillcolor="#e58139"] ;
101 -> 103 ;
104 [label=<y_minmax &le; 4.113<br/>gini = 0.86<br/>samples = 601<br/>value = [25, 6, 12, 4, 80, 134, 15, 19, 33, 132, 60, 46<br/>24, 11]>, fillcolor="#feffff"] ;
90 -> 104 ;
105 [label=<x_mean &le; 29.658<br/>gini = 0.718<br/>samples = 241<br/>value = [2, 0, 1, 0, 23, 112, 7, 5, 14, 53, 13, 7, 4<br/>0]>, fillcolor="#c1f7df"] ;
104 -> 105 ;
106 [label=<y_minmax &le; 3.473<br/>gini = 0.668<br/>samples = 86<br/>value = [2, 0, 0, 0, 9, 1, 0, 4, 14, 46, 5, 2, 3, 0]>, fillcolor="#bba7f3"] ;
105 -> 106 ;
107 [label=<z_rms &le; 26.365<br/>gini = 0.728<br/>samples = 45<br/>value = [0, 0, 0, 0, 5, 0, 0, 3, 12, 19, 2, 2, 2, 0]>, fillcolor="#dfd5f9"] ;
106 -> 107 ;
108 [label=<gini = 0.593<br/>samples = 33<br/>value = [0, 0, 0, 0, 0, 0, 0, 3, 12, 17, 0, 0, 1, 0]>, fillcolor="#dbd0f9"] ;
107 -> 108 ;
109 [label=<gini = 0.736<br/>samples = 12<br/>value = [0, 0, 0, 0, 5, 0, 0, 0, 0, 2, 2, 2, 1, 0]>, fillcolor="#c4f7ca"] ;
107 -> 109 ;
110 [label=<x_minmax &le; 12.952<br/>gini = 0.545<br/>samples = 41<br/>value = [2, 0, 0, 0, 4, 1, 0, 1, 2, 27, 3, 0, 1, 0]>, fillcolor="#a184ef"] ;
106 -> 110 ;
111 [label=<gini = 0.525<br/>samples = 40<br/>value = [2, 0, 0, 0, 4, 1, 0, 1, 2, 27, 2, 0, 1, 0]>, fillcolor="#9e80ee"] ;
110 -> 111 ;
112 [label=<gini = 0.0<br/>samples = 1<br/>value = [0, 0, 0, 0, 0, 0, 0, 0, 0, 0, 1, 0, 0, 0]>, fillcolor="#b139e5"] ;
110 -> 112 ;
113 [label=<x_rms &le; 31.586<br/>gini = 0.471<br/>samples = 155<br/>value = [0, 0, 1, 0, 14, 111, 7, 1, 0, 7, 8, 5, 1, 0]>, fillcolor="#77edb8"] ;
105 -> 113 ;
114 [label=<z_mean &le; 49.055<br/>gini = 0.701<br/>samples = 49<br/>value = [0, 0, 1, 0, 9, 24, 4, 0, 0, 5, 4, 2, 0, 0]>, fillcolor="#b5f5d8"] ;
113 -> 114 ;
115 [label=<gini = 0.5<br/>samples = 6<br/>value = [0, 0, 0, 0, 0, 1, 4, 0, 0, 1, 0, 0, 0, 0]>, fillcolor="#88efee"] ;
114 -> 115 ;
116 [label=<gini = 0.65<br/>samples = 43<br/>value = [0, 0, 1, 0, 9, 23, 0, 0, 0, 4, 4, 2, 0, 0]>, fillcolor="#adf4d5"] ;
114 -> 116 ;
117 [label=<x_std &le; 0.925<br/>gini = 0.321<br/>samples = 106<br/>value = [0, 0, 0, 0, 5, 87, 3, 1, 0, 2, 4, 3, 1, 0]>, fillcolor="#5eeaab"] ;
113 -> 117 ;
118 [label=<gini = 0.297<br/>samples = 103<br/>value = [0, 0, 0, 0, 5, 86, 3, 1, 0, 2, 4, 2, 0, 0]>, fillcolor="#5beaaa"] ;
117 -> 118 ;
119 [label=<gini = 0.667<br/>samples = 3<br/>value = [0, 0, 0, 0, 0, 1, 0, 0, 0, 0, 0, 1, 1, 0]>, fillcolor="#ffffff"] ;
117 -> 119 ;
120 [label=<z_mean &le; 43.257<br/>gini = 0.88<br/>samples = 360<br/>value = [23, 6, 11, 4, 57, 22, 8, 14, 19, 79, 47, 39<br/>20, 11]>, fillcolor="#f4f1fd"] ;
104 -> 120 ;
121 [label=<y_mean &le; 32.51<br/>gini = 0.848<br/>samples = 74<br/>value = [18, 2, 3, 1, 4, 7, 0, 3, 3, 0, 11, 16, 0, 6]>, fillcolor="#fefbf8"] ;
120 -> 121 ;
122 [label=<gini = 0.0<br/>samples = 7<br/>value = [0, 0, 0, 0, 0, 7, 0, 0, 0, 0, 0, 0, 0, 0]>, fillcolor="#39e598"] ;
121 -> 122 ;
123 [label=<x_minmax &le; 8.259<br/>gini = 0.825<br/>samples = 67<br/>value = [18, 2, 3, 1, 4, 0, 0, 3, 3, 0, 11, 16, 0, 6]>, fillcolor="#fefaf7"] ;
121 -> 123 ;
124 [label=<gini = 0.278<br/>samples = 6<br/>value = [5, 0, 0, 0, 0, 0, 0, 1, 0, 0, 0, 0, 0, 0]>, fillcolor="#ea9a61"] ;
123 -> 124 ;
125 [label=<gini = 0.832<br/>samples = 61<br/>value = [13, 2, 3, 1, 4, 0, 0, 2, 3, 0, 11, 16, 0, 6]>, fillcolor="#fdf3fc"] ;
123 -> 125 ;
126 [label=<z_integration &le; 30.157<br/>gini = 0.852<br/>samples = 286<br/>value = [5, 4, 8, 3, 53, 15, 8, 11, 16, 79, 36, 23, 20<br/>5]>, fillcolor="#eee9fc"] ;
120 -> 126 ;
127 [label=<z_rms &le; 26.792<br/>gini = 0.828<br/>samples = 216<br/>value = [3, 3, 7, 3, 46, 9, 6, 7, 10, 67, 27, 10, 16<br/>2]>, fillcolor="#ece7fc"] ;
126 -> 127 ;
128 [label=<gini = 0.808<br/>samples = 69<br/>value = [3, 2, 2, 1, 0, 0, 0, 6, 10, 25, 9, 6, 4, 1]>, fillcolor="#d8cdf8"] ;
127 -> 128 ;
129 [label=<gini = 0.791<br/>samples = 147<br/>value = [0, 1, 5, 2, 46, 9, 6, 1, 0, 42, 18, 4, 12, 1]>, fillcolor="#f7fef8"] ;
127 -> 129 ;
130 [label=<z_std &le; 5.292<br/>gini = 0.884<br/>samples = 70<br/>value = [2, 1, 1, 0, 7, 6, 2, 4, 6, 12, 9, 13, 4, 3]>, fillcolor="#fffcfe"] ;
126 -> 130 ;
131 [label=<gini = 0.877<br/>samples = 52<br/>value = [2, 0, 1, 0, 7, 6, 2, 2, 5, 12, 3, 6, 4, 2]>, fillcolor="#eee9fc"] ;
130 -> 131 ;
132 [label=<gini = 0.716<br/>samples = 18<br/>value = [0, 1, 0, 0, 0, 0, 0, 2, 1, 0, 6, 7, 0, 1]>, fillcolor="#fdeefb"] ;
130 -> 132 ;
133 [label=<y_std &le; 1.722<br/>gini = 0.653<br/>samples = 432<br/>value = [8, 3, 0, 0, 21, 240, 69, 9, 8, 36, 16, 10, 6<br/>6]>, fillcolor="#a2f3ce"] ;
89 -> 133 ;
134 [label=<y_rms &le; 33.389<br/>gini = 0.527<br/>samples = 284<br/>value = [2, 0, 0, 0, 10, 190, 40, 3, 7, 7, 10, 9, 3<br/>3]>, fillcolor="#85efc0"] ;
133 -> 134 ;
135 [label=<z_kurtosis &le; 0.167<br/>gini = 0.312<br/>samples = 68<br/>value = [0, 0, 0, 0, 2, 56, 6, 0, 0, 2, 0, 1, 1, 0]>, fillcolor="#5feaac"] ;
134 -> 135 ;
136 [label=<y_mean &le; 40.219<br/>gini = 0.213<br/>samples = 52<br/>value = [0, 0, 0, 0, 0, 46, 3, 0, 0, 1, 0, 1, 1, 0]>, fillcolor="#51e8a5"] ;
135 -> 136 ;
137 [label=<x_integration &le; 26.139<br/>gini = 0.084<br/>samples = 46<br/>value = [0, 0, 0, 0, 0, 44, 0, 0, 0, 0, 0, 1, 1, 0]>, fillcolor="#42e69d"] ;
136 -> 137 ;
138 [label=<gini = 0.071<br/>samples = 27<br/>value = [0, 0, 0, 0, 0, 26, 0, 0, 0, 0, 0, 0, 1, 0]>, fillcolor="#41e69c"] ;
137 -> 138 ;
139 [label=<gini = 0.1<br/>samples = 19<br/>value = [0, 0, 0, 0, 0, 18, 0, 0, 0, 0, 0, 1, 0, 0]>, fillcolor="#44e69e"] ;
137 -> 139 ;
140 [label=<y_integration &le; 20.115<br/>gini = 0.611<br/>samples = 6<br/>value = [0, 0, 0, 0, 0, 2, 3, 0, 0, 1, 0, 0, 0, 0]>, fillcolor="#cef8f8"] ;
136 -> 140 ;
141 [label=<gini = 0.5<br/>samples = 2<br/>value = [0, 0, 0, 0, 0, 0, 1, 0, 0, 1, 0, 0, 0, 0]>, fillcolor="#ffffff"] ;
140 -> 141 ;
142 [label=<gini = 0.5<br/>samples = 4<br/>value = [0, 0, 0, 0, 0, 2, 2, 0, 0, 0, 0, 0, 0, 0]>, fillcolor="#ffffff"] ;
140 -> 142 ;
143 [label=<y_minmax &le; 7.838<br/>gini = 0.555<br/>samples = 16<br/>value = [0, 0, 0, 0, 2, 10, 3, 0, 0, 1, 0, 0, 0, 0]>, fillcolor="#94f1c8"] ;
135 -> 143 ;
144 [label=<z_minmax &le; 3.163<br/>gini = 0.516<br/>samples = 15<br/>value = [0, 0, 0, 0, 2, 10, 2, 0, 0, 1, 0, 0, 0, 0]>, fillcolor="#85efc0"] ;
143 -> 144 ;
145 [label=<gini = 0.37<br/>samples = 9<br/>value = [0, 0, 0, 0, 1, 7, 0, 0, 0, 1, 0, 0, 0, 0]>, fillcolor="#6aecb2"] ;
144 -> 145 ;
146 [label=<gini = 0.611<br/>samples = 6<br/>value = [0, 0, 0, 0, 1, 3, 2, 0, 0, 0, 0, 0, 0, 0]>, fillcolor="#cef8e5"] ;
144 -> 146 ;
147 [label=<gini = 0.0<br/>samples = 1<br/>value = [0, 0, 0, 0, 0, 0, 1, 0, 0, 0, 0, 0, 0, 0]>, fillcolor="#39e5e2"] ;
143 -> 147 ;
148 [label=<x_integration &le; 37.43<br/>gini = 0.583<br/>samples = 216<br/>value = [2, 0, 0, 0, 8, 134, 34, 3, 7, 5, 10, 8, 2, 3]>, fillcolor="#92f1c6"] ;
134 -> 148 ;
149 [label=<z_mean &le; 52.263<br/>gini = 0.57<br/>samples = 211<br/>value = [2, 0, 0, 0, 7, 133, 34, 3, 7, 5, 9, 8, 2, 1]>, fillcolor="#90f0c5"] ;
148 -> 149 ;
150 [label=<y_rms &le; 34.593<br/>gini = 0.628<br/>samples = 165<br/>value = [2, 0, 0, 0, 5, 94, 33, 3, 5, 4, 8, 8, 2, 1]>, fillcolor="#a4f3cf"] ;
149 -> 150 ;
151 [label=<gini = 0.452<br/>samples = 99<br/>value = [0, 0, 0, 0, 4, 72, 12, 0, 3, 2, 1, 4, 1, 0]>, fillcolor="#76edb8"] ;
150 -> 151 ;
152 [label=<gini = 0.767<br/>samples = 66<br/>value = [2, 0, 0, 0, 1, 22, 21, 3, 2, 2, 7, 4, 1, 1]>, fillcolor="#fbfefd"] ;
150 -> 152 ;
153 [label=<z_minmax &le; 5.985<br/>gini = 0.276<br/>samples = 46<br/>value = [0, 0, 0, 0, 2, 39, 1, 0, 2, 1, 1, 0, 0, 0]>, fillcolor="#58e9a8"] ;
149 -> 153 ;
154 [label=<gini = 0.21<br/>samples = 44<br/>value = [0, 0, 0, 0, 2, 39, 0, 0, 2, 0, 1, 0, 0, 0]>, fillcolor="#51e8a4"] ;
153 -> 154 ;
155 [label=<gini = 0.5<br/>samples = 2<br/>value = [0, 0, 0, 0, 0, 0, 1, 0, 0, 1, 0, 0, 0, 0]>, fillcolor="#ffffff"] ;
153 -> 155 ;
156 [label=<y_std &le; 0.882<br/>gini = 0.72<br/>samples = 5<br/>value = [0, 0, 0, 0, 1, 1, 0, 0, 0, 0, 1, 0, 0, 2]>, fillcolor="#f8cece"] ;
148 -> 156 ;
157 [label=<y_rms &le; 34.452<br/>gini = 0.5<br/>samples = 2<br/>value = [0, 0, 0, 0, 1, 1, 0, 0, 0, 0, 0, 0, 0, 0]>, fillcolor="#ffffff"] ;
156 -> 157 ;
158 [label=<gini = 0.0<br/>samples = 1<br/>value = [0, 0, 0, 0, 0, 1, 0, 0, 0, 0, 0, 0, 0, 0]>, fillcolor="#39e598"] ;
157 -> 158 ;
159 [label=<gini = 0.0<br/>samples = 1<br/>value = [0, 0, 0, 0, 1, 0, 0, 0, 0, 0, 0, 0, 0, 0]>, fillcolor="#39e54d"] ;
157 -> 159 ;
160 [label=<z_minmax &le; 11.431<br/>gini = 0.444<br/>samples = 3<br/>value = [0, 0, 0, 0, 0, 0, 0, 0, 0, 0, 1, 0, 0, 2]>, fillcolor="#f29c9e"] ;
156 -> 160 ;
161 [label=<gini = 0.0<br/>samples = 2<br/>value = [0, 0, 0, 0, 0, 0, 0, 0, 0, 0, 0, 0, 0, 2]>, fillcolor="#e5393c"] ;
160 -> 161 ;
162 [label=<gini = 0.0<br/>samples = 1<br/>value = [0, 0, 0, 0, 0, 0, 0, 0, 0, 0, 1, 0, 0, 0]>, fillcolor="#b139e5"] ;
160 -> 162 ;
163 [label=<x_rms &le; 34.186<br/>gini = 0.797<br/>samples = 148<br/>value = [6, 3, 0, 0, 11, 50, 29, 6, 1, 29, 6, 1, 3, 3]>, fillcolor="#dcfaed"] ;
133 -> 163 ;
164 [label=<x_y &le; -0.32<br/>gini = 0.784<br/>samples = 34<br/>value = [0, 3, 0, 0, 7, 8, 1, 0, 0, 11, 1, 0, 1, 2]>, fillcolor="#ede8fc"] ;
163 -> 164 ;
165 [label=<y_rms &le; 33.472<br/>gini = 0.789<br/>samples = 16<br/>value = [0, 3, 0, 0, 5, 1, 1, 0, 0, 4, 1, 0, 0, 1]>, fillcolor="#eefdf0"] ;
164 -> 165 ;
166 [label=<y_kurtosis &le; 4.092<br/>gini = 0.778<br/>samples = 6<br/>value = [0, 2, 0, 0, 0, 0, 1, 0, 0, 1, 1, 0, 0, 1]>, fillcolor="#faf4d7"] ;
165 -> 166 ;
167 [label=<gini = 0.72<br/>samples = 5<br/>value = [0, 2, 0, 0, 0, 0, 1, 0, 0, 1, 1, 0, 0, 0]>, fillcolor="#f8f1ce"] ;
166 -> 167 ;
168 [label=<gini = 0.0<br/>samples = 1<br/>value = [0, 0, 0, 0, 0, 0, 0, 0, 0, 0, 0, 0, 0, 1]>, fillcolor="#e5393c"] ;
166 -> 168 ;
169 [label=<y_z &le; -0.806<br/>gini = 0.64<br/>samples = 10<br/>value = [0, 1, 0, 0, 5, 1, 0, 0, 0, 3, 0, 0, 0, 0]>, fillcolor="#c6f8cc"] ;
165 -> 169 ;
170 [label=<gini = 0.0<br/>samples = 2<br/>value = [0, 0, 0, 0, 2, 0, 0, 0, 0, 0, 0, 0, 0, 0]>, fillcolor="#39e54d"] ;
169 -> 170 ;
171 [label=<gini = 0.688<br/>samples = 8<br/>value = [0, 1, 0, 0, 3, 1, 0, 0, 0, 3, 0, 0, 0, 0]>, fillcolor="#ffffff"] ;
169 -> 171 ;
172 [label=<x_mean &le; 33.423<br/>gini = 0.679<br/>samples = 18<br/>value = [0, 0, 0, 0, 2, 7, 0, 0, 0, 7, 0, 0, 1, 1]>, fillcolor="#ffffff"] ;
164 -> 172 ;
173 [label=<z_minmax &le; 6.934<br/>gini = 0.571<br/>samples = 7<br/>value = [0, 0, 0, 0, 2, 1, 0, 0, 0, 4, 0, 0, 0, 0]>, fillcolor="#c2b0f5"] ;
172 -> 173 ;
174 [label=<gini = 0.0<br/>samples = 2<br/>value = [0, 0, 0, 0, 2, 0, 0, 0, 0, 0, 0, 0, 0, 0]>, fillcolor="#39e54d"] ;
173 -> 174 ;
175 [label=<gini = 0.32<br/>samples = 5<br/>value = [0, 0, 0, 0, 0, 1, 0, 0, 0, 4, 0, 0, 0, 0]>, fillcolor="#8d6aec"] ;
173 -> 175 ;
176 [label=<y_integration &le; 21.239<br/>gini = 0.612<br/>samples = 11<br/>value = [0, 0, 0, 0, 0, 6, 0, 0, 0, 3, 0, 0, 1, 1]>, fillcolor="#b5f5d8"] ;
172 -> 176 ;
177 [label=<gini = 0.0<br/>samples = 1<br/>value = [0, 0, 0, 0, 0, 0, 0, 0, 0, 0, 0, 0, 0, 1]>, fillcolor="#e5393c"] ;
176 -> 177 ;
178 [label=<gini = 0.54<br/>samples = 10<br/>value = [0, 0, 0, 0, 0, 6, 0, 0, 0, 3, 0, 0, 1, 0]>, fillcolor="#aaf4d3"] ;
176 -> 178 ;
179 [label=<x_y &le; -0.059<br/>gini = 0.77<br/>samples = 114<br/>value = [6, 0, 0, 0, 4, 42, 28, 6, 1, 18, 5, 1, 2, 1]>, fillcolor="#dffbee"] ;
163 -> 179 ;
180 [label=<y_mean &le; 30.546<br/>gini = 0.733<br/>samples = 53<br/>value = [1, 0, 0, 0, 4, 8, 24, 2, 0, 9, 2, 1, 1, 1]>, fillcolor="#bcf6f5"] ;
179 -> 180 ;
181 [label=<x_z &le; -0.041<br/>gini = 0.444<br/>samples = 3<br/>value = [0, 0, 0, 0, 1, 2, 0, 0, 0, 0, 0, 0, 0, 0]>, fillcolor="#9cf2cc"] ;
180 -> 181 ;
182 [label=<gini = 0.0<br/>samples = 2<br/>value = [0, 0, 0, 0, 0, 2, 0, 0, 0, 0, 0, 0, 0, 0]>, fillcolor="#39e598"] ;
181 -> 182 ;
183 [label=<gini = 0.0<br/>samples = 1<br/>value = [0, 0, 0, 0, 1, 0, 0, 0, 0, 0, 0, 0, 0, 0]>, fillcolor="#39e54d"] ;
181 -> 183 ;
184 [label=<y_rms &le; 34.538<br/>gini = 0.714<br/>samples = 50<br/>value = [1, 0, 0, 0, 3, 6, 24, 2, 0, 9, 2, 1, 1, 1]>, fillcolor="#b7f5f4"] ;
180 -> 184 ;
185 [label=<gini = 0.612<br/>samples = 7<br/>value = [0, 0, 0, 0, 1, 0, 1, 0, 0, 4, 0, 0, 1, 0]>, fillcolor="#b39cf2"] ;
184 -> 185 ;
186 [label=<gini = 0.673<br/>samples = 43<br/>value = [1, 0, 0, 0, 2, 6, 23, 2, 0, 5, 2, 1, 0, 1]>, fillcolor="#a4f3f2"] ;
184 -> 186 ;
187 [label=<z_std &le; 5.381<br/>gini = 0.649<br/>samples = 61<br/>value = [5, 0, 0, 0, 0, 34, 4, 4, 1, 9, 3, 0, 1, 0]>, fillcolor="#a0f2cd"] ;
179 -> 187 ;
188 [label=<x_z &le; 0.843<br/>gini = 0.629<br/>samples = 59<br/>value = [5, 0, 0, 0, 0, 34, 4, 3, 1, 9, 2, 0, 1, 0]>, fillcolor="#9cf2cc"] ;
187 -> 188 ;
189 [label=<gini = 0.604<br/>samples = 57<br/>value = [5, 0, 0, 0, 0, 34, 4, 1, 1, 9, 2, 0, 1, 0]>, fillcolor="#98f1c9"] ;
188 -> 189 ;
190 [label=<gini = 0.0<br/>samples = 2<br/>value = [0, 0, 0, 0, 0, 0, 0, 2, 0, 0, 0, 0, 0, 0]>, fillcolor="#399de5"] ;
188 -> 190 ;
191 [label=<x_z &le; 0.75<br/>gini = 0.5<br/>samples = 2<br/>value = [0, 0, 0, 0, 0, 0, 0, 1, 0, 0, 1, 0, 0, 0]>, fillcolor="#ffffff"] ;
187 -> 191 ;
192 [label=<gini = 0.0<br/>samples = 1<br/>value = [0, 0, 0, 0, 0, 0, 0, 1, 0, 0, 0, 0, 0, 0]>, fillcolor="#399de5"] ;
191 -> 192 ;
193 [label=<gini = 0.0<br/>samples = 1<br/>value = [0, 0, 0, 0, 0, 0, 0, 0, 0, 0, 1, 0, 0, 0]>, fillcolor="#b139e5"] ;
191 -> 193 ;
194 [label=<y_z &le; -0.829<br/>gini = 0.903<br/>samples = 234<br/>value = [11, 15, 7, 16, 42, 8, 7, 17, 11, 34, 14, 24, 9<br/>19]>, fillcolor="#f7fef8"] ;
2 -> 194 ;
195 [label=<z_minmax &le; 22.835<br/>gini = 0.645<br/>samples = 33<br/>value = [3, 0, 0, 0, 18, 0, 5, 2, 0, 5, 0, 0, 0, 0]>, fillcolor="#a3f3ac"] ;
194 -> 195 ;
196 [label=<z_minmax &le; 16.765<br/>gini = 0.58<br/>samples = 30<br/>value = [2, 0, 0, 0, 18, 0, 5, 0, 0, 5, 0, 0, 0, 0]>, fillcolor="#98f1a2"] ;
195 -> 196 ;
197 [label=<y_std &le; 4.135<br/>gini = 0.47<br/>samples = 26<br/>value = [0, 0, 0, 0, 18, 0, 5, 0, 0, 3, 0, 0, 0, 0]>, fillcolor="#84ef91"] ;
196 -> 197 ;
198 [label=<x_rms &le; 35.693<br/>gini = 0.49<br/>samples = 7<br/>value = [0, 0, 0, 0, 4, 0, 3, 0, 0, 0, 0, 0, 0, 0]>, fillcolor="#cef8d2"] ;
197 -> 198 ;
199 [label=<y_kurtosis &le; -0.72<br/>gini = 0.444<br/>samples = 6<br/>value = [0, 0, 0, 0, 4, 0, 2, 0, 0, 0, 0, 0, 0, 0]>, fillcolor="#9cf2a6"] ;
198 -> 199 ;
200 [label=<x_std &le; 1.204<br/>gini = 0.444<br/>samples = 3<br/>value = [0, 0, 0, 0, 1, 0, 2, 0, 0, 0, 0, 0, 0, 0]>, fillcolor="#9cf2f0"] ;
199 -> 200 ;
201 [label=<gini = 0.0<br/>samples = 1<br/>value = [0, 0, 0, 0, 1, 0, 0, 0, 0, 0, 0, 0, 0, 0]>, fillcolor="#39e54d"] ;
200 -> 201 ;
202 [label=<gini = 0.0<br/>samples = 2<br/>value = [0, 0, 0, 0, 0, 0, 2, 0, 0, 0, 0, 0, 0, 0]>, fillcolor="#39e5e2"] ;
200 -> 202 ;
203 [label=<gini = 0.0<br/>samples = 3<br/>value = [0, 0, 0, 0, 3, 0, 0, 0, 0, 0, 0, 0, 0, 0]>, fillcolor="#39e54d"] ;
199 -> 203 ;
204 [label=<gini = 0.0<br/>samples = 1<br/>value = [0, 0, 0, 0, 0, 0, 1, 0, 0, 0, 0, 0, 0, 0]>, fillcolor="#39e5e2"] ;
198 -> 204 ;
205 [label=<x_z &le; -0.315<br/>gini = 0.421<br/>samples = 19<br/>value = [0, 0, 0, 0, 14, 0, 2, 0, 0, 3, 0, 0, 0, 0]>, fillcolor="#77ed85"] ;
197 -> 205 ;
206 [label=<gini = 0.0<br/>samples = 2<br/>value = [0, 0, 0, 0, 0, 0, 0, 0, 0, 2, 0, 0, 0, 0]>, fillcolor="#6739e5"] ;
205 -> 206 ;
207 [label=<x_minmax &le; 7.085<br/>gini = 0.304<br/>samples = 17<br/>value = [0, 0, 0, 0, 14, 0, 2, 0, 0, 1, 0, 0, 0, 0]>, fillcolor="#61ea71"] ;
205 -> 207 ;
208 [label=<y_std &le; 4.741<br/>gini = 0.611<br/>samples = 6<br/>value = [0, 0, 0, 0, 3, 0, 2, 0, 0, 1, 0, 0, 0, 0]>, fillcolor="#cef8d2"] ;
207 -> 208 ;
209 [label=<gini = 0.444<br/>samples = 3<br/>value = [0, 0, 0, 0, 2, 0, 0, 0, 0, 1, 0, 0, 0, 0]>, fillcolor="#9cf2a6"] ;
208 -> 209 ;
210 [label=<gini = 0.444<br/>samples = 3<br/>value = [0, 0, 0, 0, 1, 0, 2, 0, 0, 0, 0, 0, 0, 0]>, fillcolor="#9cf2f0"] ;
208 -> 210 ;
211 [label=<gini = 0.0<br/>samples = 11<br/>value = [0, 0, 0, 0, 11, 0, 0, 0, 0, 0, 0, 0, 0, 0]>, fillcolor="#39e54d"] ;
207 -> 211 ;
212 [label=<y_mean &le; 45.662<br/>gini = 0.5<br/>samples = 4<br/>value = [2, 0, 0, 0, 0, 0, 0, 0, 0, 2, 0, 0, 0, 0]>, fillcolor="#ffffff"] ;
196 -> 212 ;
213 [label=<gini = 0.0<br/>samples = 1<br/>value = [0, 0, 0, 0, 0, 0, 0, 0, 0, 1, 0, 0, 0, 0]>, fillcolor="#6739e5"] ;
212 -> 213 ;
214 [label=<x_minmax &le; 6.26<br/>gini = 0.444<br/>samples = 3<br/>value = [2, 0, 0, 0, 0, 0, 0, 0, 0, 1, 0, 0, 0, 0]>, fillcolor="#f2c09c"] ;
212 -> 214 ;
215 [label=<gini = 0.0<br/>samples = 1<br/>value = [0, 0, 0, 0, 0, 0, 0, 0, 0, 1, 0, 0, 0, 0]>, fillcolor="#6739e5"] ;
214 -> 215 ;
216 [label=<gini = 0.0<br/>samples = 2<br/>value = [2, 0, 0, 0, 0, 0, 0, 0, 0, 0, 0, 0, 0, 0]>, fillcolor="#e58139"] ;
214 -> 216 ;
217 [label=<z_integration &le; 36.801<br/>gini = 0.444<br/>samples = 3<br/>value = [1, 0, 0, 0, 0, 0, 0, 2, 0, 0, 0, 0, 0, 0]>, fillcolor="#9ccef2"] ;
195 -> 217 ;
218 [label=<gini = 0.0<br/>samples = 2<br/>value = [0, 0, 0, 0, 0, 0, 0, 2, 0, 0, 0, 0, 0, 0]>, fillcolor="#399de5"] ;
217 -> 218 ;
219 [label=<gini = 0.0<br/>samples = 1<br/>value = [1, 0, 0, 0, 0, 0, 0, 0, 0, 0, 0, 0, 0, 0]>, fillcolor="#e58139"] ;
217 -> 219 ;
220 [label=<z_rms &le; 27.168<br/>gini = 0.91<br/>samples = 201<br/>value = [8, 15, 7, 16, 24, 8, 2, 15, 11, 29, 14, 24, 9<br/>19]>, fillcolor="#fbf9fe"] ;
194 -> 220 ;
221 [label=<y_integration &le; 21.301<br/>gini = 0.888<br/>samples = 105<br/>value = [6, 9, 7, 6, 1, 0, 0, 12, 10, 10, 10, 21, 1<br/>12]>, fillcolor="#fcecfb"] ;
220 -> 221 ;
222 [label=<y_rms &le; 17.557<br/>gini = 0.884<br/>samples = 51<br/>value = [3, 8, 5, 4, 0, 0, 0, 2, 4, 8, 5, 4, 0, 8]>, fillcolor="#ffffff"] ;
221 -> 222 ;
223 [label=<x_mean &le; 14.987<br/>gini = 0.848<br/>samples = 21<br/>value = [1, 5, 1, 1, 0, 0, 0, 2, 3, 0, 3, 1, 0, 4]>, fillcolor="#fdfcf3"] ;
222 -> 223 ;
224 [label=<y_z &le; 0.127<br/>gini = 0.8<br/>samples = 15<br/>value = [1, 5, 0, 0, 0, 0, 0, 1, 3, 0, 2, 1, 0, 2]>, fillcolor="#fbf6de"] ;
223 -> 224 ;
225 [label=<z_kurtosis &le; -0.761<br/>gini = 0.625<br/>samples = 4<br/>value = [1, 0, 0, 0, 0, 0, 0, 0, 2, 0, 0, 1, 0, 0]>, fillcolor="#bdc7f6"] ;
224 -> 225 ;
226 [label=<gini = 0.0<br/>samples = 1<br/>value = [0, 0, 0, 0, 0, 0, 0, 0, 0, 0, 0, 1, 0, 0]>, fillcolor="#e539d1"] ;
225 -> 226 ;
227 [label=<gini = 0.444<br/>samples = 3<br/>value = [1, 0, 0, 0, 0, 0, 0, 0, 2, 0, 0, 0, 0, 0]>, fillcolor="#9caaf2"] ;
225 -> 227 ;
228 [label=<z_std &le; 2.413<br/>gini = 0.711<br/>samples = 11<br/>value = [0, 5, 0, 0, 0, 0, 0, 1, 1, 0, 2, 0, 0, 2]>, fillcolor="#f6edbd"] ;
224 -> 228 ;
229 [label=<gini = 0.0<br/>samples = 1<br/>value = [0, 0, 0, 0, 0, 0, 0, 1, 0, 0, 0, 0, 0, 0]>, fillcolor="#399de5"] ;
228 -> 229 ;
230 [label=<gini = 0.66<br/>samples = 10<br/>value = [0, 5, 0, 0, 0, 0, 0, 0, 1, 0, 2, 0, 0, 2]>, fillcolor="#f5eab5"] ;
228 -> 230 ;
231 [label=<x_std &le; 5.403<br/>gini = 0.778<br/>samples = 6<br/>value = [0, 0, 1, 1, 0, 0, 0, 1, 0, 0, 1, 0, 0, 2]>, fillcolor="#fad7d8"] ;
223 -> 231 ;
232 [label=<x_std &le; 4.682<br/>gini = 0.667<br/>samples = 3<br/>value = [0, 0, 0, 1, 0, 0, 0, 1, 0, 0, 1, 0, 0, 0]>, fillcolor="#ffffff"] ;
231 -> 232 ;
233 [label=<gini = 0.5<br/>samples = 2<br/>value = [0, 0, 0, 0, 0, 0, 0, 1, 0, 0, 1, 0, 0, 0]>, fillcolor="#ffffff"] ;
232 -> 233 ;
234 [label=<gini = 0.0<br/>samples = 1<br/>value = [0, 0, 0, 1, 0, 0, 0, 0, 0, 0, 0, 0, 0, 0]>, fillcolor="#6de539"] ;
232 -> 234 ;
235 [label=<y_integration &le; 14.32<br/>gini = 0.444<br/>samples = 3<br/>value = [0, 0, 1, 0, 0, 0, 0, 0, 0, 0, 0, 0, 0, 2]>, fillcolor="#f29c9e"] ;
231 -> 235 ;
236 [label=<gini = 0.0<br/>samples = 1<br/>value = [0, 0, 1, 0, 0, 0, 0, 0, 0, 0, 0, 0, 0, 0]>, fillcolor="#b7e539"] ;
235 -> 236 ;
237 [label=<gini = 0.0<br/>samples = 2<br/>value = [0, 0, 0, 0, 0, 0, 0, 0, 0, 0, 0, 0, 0, 2]>, fillcolor="#e5393c"] ;
235 -> 237 ;
238 [label=<x_z &le; 0.295<br/>gini = 0.853<br/>samples = 30<br/>value = [2, 3, 4, 3, 0, 0, 0, 0, 1, 8, 2, 3, 0, 4]>, fillcolor="#e8e1fb"] ;
222 -> 238 ;
239 [label=<z_rms &le; 20.934<br/>gini = 0.746<br/>samples = 13<br/>value = [2, 0, 3, 0, 0, 0, 0, 0, 1, 5, 0, 0, 0, 2]>, fillcolor="#e1d7fa"] ;
238 -> 239 ;
240 [label=<y_std &le; 3.88<br/>gini = 0.72<br/>samples = 5<br/>value = [1, 0, 1, 0, 0, 0, 0, 0, 1, 0, 0, 0, 0, 2]>, fillcolor="#f8cece"] ;
239 -> 240 ;
241 [label=<gini = 0.5<br/>samples = 2<br/>value = [1, 0, 0, 0, 0, 0, 0, 0, 1, 0, 0, 0, 0, 0]>, fillcolor="#ffffff"] ;
240 -> 241 ;
242 [label=<gini = 0.444<br/>samples = 3<br/>value = [0, 0, 1, 0, 0, 0, 0, 0, 0, 0, 0, 0, 0, 2]>, fillcolor="#f29c9e"] ;
240 -> 242 ;
243 [label=<x_rms &le; 26.803<br/>gini = 0.531<br/>samples = 8<br/>value = [1, 0, 2, 0, 0, 0, 0, 0, 0, 5, 0, 0, 0, 0]>, fillcolor="#b39cf2"] ;
239 -> 243 ;
244 [label=<gini = 0.278<br/>samples = 6<br/>value = [1, 0, 0, 0, 0, 0, 0, 0, 0, 5, 0, 0, 0, 0]>, fillcolor="#8561ea"] ;
243 -> 244 ;
245 [label=<gini = 0.0<br/>samples = 2<br/>value = [0, 0, 2, 0, 0, 0, 0, 0, 0, 0, 0, 0, 0, 0]>, fillcolor="#b7e539"] ;
243 -> 245 ;
246 [label=<x_kurtosis &le; 0.401<br/>gini = 0.844<br/>samples = 17<br/>value = [0, 3, 1, 3, 0, 0, 0, 0, 0, 3, 2, 3, 0, 2]>, fillcolor="#ffffff"] ;
238 -> 246 ;
247 [label=<z_minmax &le; 15.573<br/>gini = 0.816<br/>samples = 14<br/>value = [0, 3, 1, 3, 0, 0, 0, 0, 0, 0, 2, 3, 0, 2]>, fillcolor="#ffffff"] ;
246 -> 247 ;
248 [label=<gini = 0.0<br/>samples = 1<br/>value = [0, 0, 1, 0, 0, 0, 0, 0, 0, 0, 0, 0, 0, 0]>, fillcolor="#b7e539"] ;
247 -> 248 ;
249 [label=<gini = 0.793<br/>samples = 13<br/>value = [0, 3, 0, 3, 0, 0, 0, 0, 0, 0, 2, 3, 0, 2]>, fillcolor="#ffffff"] ;
247 -> 249 ;
250 [label=<gini = 0.0<br/>samples = 3<br/>value = [0, 0, 0, 0, 0, 0, 0, 0, 0, 3, 0, 0, 0, 0]>, fillcolor="#6739e5"] ;
246 -> 250 ;
251 [label=<z_minmax &le; 14.024<br/>gini = 0.832<br/>samples = 54<br/>value = [3, 1, 2, 2, 1, 0, 0, 10, 6, 2, 5, 17, 1, 4]>, fillcolor="#fbdff8"] ;
221 -> 251 ;
252 [label=<y_std &le; 4.28<br/>gini = 0.857<br/>samples = 14<br/>value = [3, 0, 2, 1, 0, 0, 0, 1, 1, 2, 0, 2, 0, 2]>, fillcolor="#fdf4ee"] ;
251 -> 252 ;
253 [label=<z_kurtosis &le; -0.302<br/>gini = 0.812<br/>samples = 8<br/>value = [1, 0, 2, 1, 0, 0, 0, 0, 1, 0, 0, 2, 0, 1]>, fillcolor="#ffffff"] ;
252 -> 253 ;
254 [label=<x_kurtosis &le; -0.259<br/>gini = 0.722<br/>samples = 6<br/>value = [1, 0, 2, 1, 0, 0, 0, 0, 0, 0, 0, 2, 0, 0]>, fillcolor="#ffffff"] ;
253 -> 254 ;
255 [label=<gini = 0.667<br/>samples = 3<br/>value = [1, 0, 1, 1, 0, 0, 0, 0, 0, 0, 0, 0, 0, 0]>, fillcolor="#ffffff"] ;
254 -> 255 ;
256 [label=<gini = 0.444<br/>samples = 3<br/>value = [0, 0, 1, 0, 0, 0, 0, 0, 0, 0, 0, 2, 0, 0]>, fillcolor="#f29ce8"] ;
254 -> 256 ;
257 [label=<x_kurtosis &le; 0.209<br/>gini = 0.5<br/>samples = 2<br/>value = [0, 0, 0, 0, 0, 0, 0, 0, 1, 0, 0, 0, 0, 1]>, fillcolor="#ffffff"] ;
253 -> 257 ;
258 [label=<gini = 0.0<br/>samples = 1<br/>value = [0, 0, 0, 0, 0, 0, 0, 0, 0, 0, 0, 0, 0, 1]>, fillcolor="#e5393c"] ;
257 -> 258 ;
259 [label=<gini = 0.0<br/>samples = 1<br/>value = [0, 0, 0, 0, 0, 0, 0, 0, 1, 0, 0, 0, 0, 0]>, fillcolor="#3956e5"] ;
257 -> 259 ;
260 [label=<z_mean &le; 39.21<br/>gini = 0.722<br/>samples = 6<br/>value = [2, 0, 0, 0, 0, 0, 0, 1, 0, 2, 0, 0, 0, 1]>, fillcolor="#ffffff"] ;
252 -> 260 ;
261 [label=<gini = 0.0<br/>samples = 1<br/>value = [0, 0, 0, 0, 0, 0, 0, 0, 0, 0, 0, 0, 0, 1]>, fillcolor="#e5393c"] ;
260 -> 261 ;
262 [label=<z_rms &le; 19.123<br/>gini = 0.64<br/>samples = 5<br/>value = [2, 0, 0, 0, 0, 0, 0, 1, 0, 2, 0, 0, 0, 0]>, fillcolor="#ffffff"] ;
260 -> 262 ;
263 [label=<gini = 0.0<br/>samples = 1<br/>value = [0, 0, 0, 0, 0, 0, 0, 1, 0, 0, 0, 0, 0, 0]>, fillcolor="#399de5"] ;
262 -> 263 ;
264 [label=<gini = 0.5<br/>samples = 4<br/>value = [2, 0, 0, 0, 0, 0, 0, 0, 0, 2, 0, 0, 0, 0]>, fillcolor="#ffffff"] ;
262 -> 264 ;
265 [label=<x_y &le; -0.181<br/>gini = 0.772<br/>samples = 40<br/>value = [0, 1, 0, 1, 1, 0, 0, 9, 5, 0, 5, 15, 1, 2]>, fillcolor="#fad9f6"] ;
251 -> 265 ;
266 [label=<x_mean &le; 20.372<br/>gini = 0.75<br/>samples = 4<br/>value = [0, 0, 0, 1, 1, 0, 0, 1, 0, 0, 0, 0, 0, 1]>, fillcolor="#ffffff"] ;
265 -> 266 ;
267 [label=<y_mean &le; 40.02<br/>gini = 0.5<br/>samples = 2<br/>value = [0, 0, 0, 0, 0, 0, 0, 1, 0, 0, 0, 0, 0, 1]>, fillcolor="#ffffff"] ;
266 -> 267 ;
268 [label=<gini = 0.0<br/>samples = 1<br/>value = [0, 0, 0, 0, 0, 0, 0, 1, 0, 0, 0, 0, 0, 0]>, fillcolor="#399de5"] ;
267 -> 268 ;
269 [label=<gini = 0.0<br/>samples = 1<br/>value = [0, 0, 0, 0, 0, 0, 0, 0, 0, 0, 0, 0, 0, 1]>, fillcolor="#e5393c"] ;
267 -> 269 ;
270 [label=<z_minmax &le; 21.167<br/>gini = 0.5<br/>samples = 2<br/>value = [0, 0, 0, 1, 1, 0, 0, 0, 0, 0, 0, 0, 0, 0]>, fillcolor="#ffffff"] ;
266 -> 270 ;
271 [label=<gini = 0.0<br/>samples = 1<br/>value = [0, 0, 0, 1, 0, 0, 0, 0, 0, 0, 0, 0, 0, 0]>, fillcolor="#6de539"] ;
270 -> 271 ;
272 [label=<gini = 0.0<br/>samples = 1<br/>value = [0, 0, 0, 0, 1, 0, 0, 0, 0, 0, 0, 0, 0, 0]>, fillcolor="#39e54d"] ;
270 -> 272 ;
273 [label=<y_minmax &le; 14.995<br/>gini = 0.736<br/>samples = 36<br/>value = [0, 1, 0, 0, 0, 0, 0, 8, 5, 0, 5, 15, 1, 1]>, fillcolor="#f8cef4"] ;
265 -> 273 ;
274 [label=<x_minmax &le; 20.113<br/>gini = 0.704<br/>samples = 14<br/>value = [0, 0, 0, 0, 0, 0, 0, 1, 2, 0, 4, 6, 1, 0]>, fillcolor="#fad7f6"] ;
273 -> 274 ;
275 [label=<gini = 0.58<br/>samples = 10<br/>value = [0, 0, 0, 0, 0, 0, 0, 1, 0, 0, 2, 6, 1, 0]>, fillcolor="#f29ce8"] ;
274 -> 275 ;
276 [label=<gini = 0.5<br/>samples = 4<br/>value = [0, 0, 0, 0, 0, 0, 0, 0, 2, 0, 2, 0, 0, 0]>, fillcolor="#ffffff"] ;
274 -> 276 ;
277 [label=<x_std &le; 3.202<br/>gini = 0.707<br/>samples = 22<br/>value = [0, 1, 0, 0, 0, 0, 0, 7, 3, 0, 1, 9, 0, 1]>, fillcolor="#fce5f9"] ;
273 -> 277 ;
278 [label=<gini = 0.32<br/>samples = 5<br/>value = [0, 0, 0, 0, 0, 0, 0, 1, 0, 0, 0, 4, 0, 0]>, fillcolor="#ec6adc"] ;
277 -> 278 ;
279 [label=<gini = 0.747<br/>samples = 17<br/>value = [0, 1, 0, 0, 0, 0, 0, 6, 3, 0, 1, 5, 0, 1]>, fillcolor="#eef7fd"] ;
277 -> 279 ;
280 [label=<y_z &le; -0.082<br/>gini = 0.865<br/>samples = 96<br/>value = [2, 6, 0, 10, 23, 8, 2, 3, 1, 19, 4, 3, 8, 7]>, fillcolor="#f5fef6"] ;
220 -> 280 ;
281 [label=<z_minmax &le; 17.813<br/>gini = 0.83<br/>samples = 77<br/>value = [2, 6, 0, 9, 23, 2, 2, 0, 0, 16, 2, 2, 7, 6]>, fillcolor="#e8fceb"] ;
280 -> 281 ;
282 [label=<x_mean &le; 28.978<br/>gini = 0.729<br/>samples = 52<br/>value = [0, 1, 0, 2, 22, 2, 2, 0, 0, 14, 1, 1, 6, 1]>, fillcolor="#d5fada"] ;
281 -> 282 ;
283 [label=<z_mean &le; 49.646<br/>gini = 0.593<br/>samples = 9<br/>value = [0, 0, 0, 0, 4, 0, 0, 0, 0, 1, 0, 0, 4, 0]>, fillcolor="#ffffff"] ;
282 -> 283 ;
284 [label=<y_integration &le; 23.124<br/>gini = 0.5<br/>samples = 6<br/>value = [0, 0, 0, 0, 4, 0, 0, 0, 0, 1, 0, 0, 1, 0]>, fillcolor="#88ef94"] ;
283 -> 284 ;
285 [label=<gini = 0.5<br/>samples = 2<br/>value = [0, 0, 0, 0, 0, 0, 0, 0, 0, 1, 0, 0, 1, 0]>, fillcolor="#ffffff"] ;
284 -> 285 ;
286 [label=<gini = 0.0<br/>samples = 4<br/>value = [0, 0, 0, 0, 4, 0, 0, 0, 0, 0, 0, 0, 0, 0]>, fillcolor="#39e54d"] ;
284 -> 286 ;
287 [label=<gini = 0.0<br/>samples = 3<br/>value = [0, 0, 0, 0, 0, 0, 0, 0, 0, 0, 0, 0, 3, 0]>, fillcolor="#e53986"] ;
283 -> 287 ;
288 [label=<x_y &le; -0.846<br/>gini = 0.723<br/>samples = 43<br/>value = [0, 1, 0, 2, 18, 2, 2, 0, 0, 13, 1, 1, 2, 1]>, fillcolor="#defbe1"] ;
282 -> 288 ;
289 [label=<gini = 0.0<br/>samples = 8<br/>value = [0, 0, 0, 0, 8, 0, 0, 0, 0, 0, 0, 0, 0, 0]>, fillcolor="#39e54d"] ;
288 -> 289 ;
290 [label=<x_kurtosis &le; 0.745<br/>gini = 0.764<br/>samples = 35<br/>value = [0, 1, 0, 2, 10, 2, 2, 0, 0, 13, 1, 1, 2, 1]>, fillcolor="#ede7fc"] ;
288 -> 290 ;
291 [label=<gini = 0.723<br/>samples = 32<br/>value = [0, 0, 0, 1, 10, 2, 2, 0, 0, 13, 0, 1, 2, 1]>, fillcolor="#eae4fb"] ;
290 -> 291 ;
292 [label=<gini = 0.667<br/>samples = 3<br/>value = [0, 1, 0, 1, 0, 0, 0, 0, 0, 0, 1, 0, 0, 0]>, fillcolor="#ffffff"] ;
290 -> 292 ;
293 [label=<z_kurtosis &le; 6.17<br/>gini = 0.822<br/>samples = 25<br/>value = [2, 5, 0, 7, 1, 0, 0, 0, 0, 2, 1, 1, 1, 5]>, fillcolor="#f0fceb"] ;
281 -> 293 ;
294 [label=<x_y &le; -0.347<br/>gini = 0.781<br/>samples = 22<br/>value = [2, 5, 0, 7, 0, 0, 0, 0, 0, 0, 1, 1, 1, 5]>, fillcolor="#eefce8"] ;
293 -> 294 ;
295 [label=<z_minmax &le; 25.432<br/>gini = 0.747<br/>samples = 17<br/>value = [1, 3, 0, 6, 0, 0, 0, 0, 0, 0, 1, 1, 0, 5]>, fillcolor="#f3fdee"] ;
294 -> 295 ;
296 [label=<gini = 0.719<br/>samples = 16<br/>value = [1, 3, 0, 6, 0, 0, 0, 0, 0, 0, 1, 0, 0, 5]>, fillcolor="#f2fded"] ;
295 -> 296 ;
297 [label=<gini = 0.0<br/>samples = 1<br/>value = [0, 0, 0, 0, 0, 0, 0, 0, 0, 0, 0, 1, 0, 0]>, fillcolor="#e539d1"] ;
295 -> 297 ;
298 [label=<x_std &le; 8.465<br/>gini = 0.72<br/>samples = 5<br/>value = [1, 2, 0, 1, 0, 0, 0, 0, 0, 0, 0, 0, 1, 0]>, fillcolor="#f8f1ce"] ;
294 -> 298 ;
299 [label=<gini = 0.5<br/>samples = 2<br/>value = [1, 0, 0, 0, 0, 0, 0, 0, 0, 0, 0, 0, 1, 0]>, fillcolor="#ffffff"] ;
298 -> 299 ;
300 [label=<gini = 0.444<br/>samples = 3<br/>value = [0, 2, 0, 1, 0, 0, 0, 0, 0, 0, 0, 0, 0, 0]>, fillcolor="#f2e49c"] ;
298 -> 300 ;
301 [label=<x_mean &le; 33.011<br/>gini = 0.444<br/>samples = 3<br/>value = [0, 0, 0, 0, 1, 0, 0, 0, 0, 2, 0, 0, 0, 0]>, fillcolor="#b39cf2"] ;
293 -> 301 ;
302 [label=<gini = 0.0<br/>samples = 2<br/>value = [0, 0, 0, 0, 0, 0, 0, 0, 0, 2, 0, 0, 0, 0]>, fillcolor="#6739e5"] ;
301 -> 302 ;
303 [label=<gini = 0.0<br/>samples = 1<br/>value = [0, 0, 0, 0, 1, 0, 0, 0, 0, 0, 0, 0, 0, 0]>, fillcolor="#39e54d"] ;
301 -> 303 ;
304 [label=<z_mean &le; 46.198<br/>gini = 0.825<br/>samples = 19<br/>value = [0, 0, 0, 1, 0, 6, 0, 3, 1, 3, 2, 1, 1, 1]>, fillcolor="#dafaec"] ;
280 -> 304 ;
305 [label=<y_std &le; 4.252<br/>gini = 0.815<br/>samples = 9<br/>value = [0, 0, 0, 1, 0, 1, 0, 3, 1, 0, 1, 1, 0, 1]>, fillcolor="#cee6f8"] ;
304 -> 305 ;
306 [label=<x_integration &le; 22.832<br/>gini = 0.5<br/>samples = 2<br/>value = [0, 0, 0, 0, 0, 1, 0, 0, 0, 0, 1, 0, 0, 0]>, fillcolor="#ffffff"] ;
305 -> 306 ;
307 [label=<gini = 0.0<br/>samples = 1<br/>value = [0, 0, 0, 0, 0, 1, 0, 0, 0, 0, 0, 0, 0, 0]>, fillcolor="#39e598"] ;
306 -> 307 ;
308 [label=<gini = 0.0<br/>samples = 1<br/>value = [0, 0, 0, 0, 0, 0, 0, 0, 0, 0, 1, 0, 0, 0]>, fillcolor="#b139e5"] ;
306 -> 308 ;
309 [label=<y_std &le; 5.063<br/>gini = 0.735<br/>samples = 7<br/>value = [0, 0, 0, 1, 0, 0, 0, 3, 1, 0, 0, 1, 0, 1]>, fillcolor="#bddef6"] ;
305 -> 309 ;
310 [label=<x_kurtosis &le; 0.901<br/>gini = 0.75<br/>samples = 4<br/>value = [0, 0, 0, 1, 0, 0, 0, 0, 1, 0, 0, 1, 0, 1]>, fillcolor="#ffffff"] ;
309 -> 310 ;
311 [label=<gini = 0.667<br/>samples = 3<br/>value = [0, 0, 0, 1, 0, 0, 0, 0, 0, 0, 0, 1, 0, 1]>, fillcolor="#ffffff"] ;
310 -> 311 ;
312 [label=<gini = 0.0<br/>samples = 1<br/>value = [0, 0, 0, 0, 0, 0, 0, 0, 1, 0, 0, 0, 0, 0]>, fillcolor="#3956e5"] ;
310 -> 312 ;
313 [label=<gini = 0.0<br/>samples = 3<br/>value = [0, 0, 0, 0, 0, 0, 0, 3, 0, 0, 0, 0, 0, 0]>, fillcolor="#399de5"] ;
309 -> 313 ;
314 [label=<x_minmax &le; 12.695<br/>gini = 0.64<br/>samples = 10<br/>value = [0, 0, 0, 0, 0, 5, 0, 0, 0, 3, 1, 0, 1, 0]>, fillcolor="#c6f8e2"] ;
304 -> 314 ;
315 [label=<y_z &le; 0.705<br/>gini = 0.278<br/>samples = 6<br/>value = [0, 0, 0, 0, 0, 5, 0, 0, 0, 1, 0, 0, 0, 0]>, fillcolor="#61eaad"] ;
314 -> 315 ;
316 [label=<x_rms &le; 34.817<br/>gini = 0.5<br/>samples = 2<br/>value = [0, 0, 0, 0, 0, 1, 0, 0, 0, 1, 0, 0, 0, 0]>, fillcolor="#ffffff"] ;
315 -> 316 ;
317 [label=<gini = 0.0<br/>samples = 1<br/>value = [0, 0, 0, 0, 0, 0, 0, 0, 0, 1, 0, 0, 0, 0]>, fillcolor="#6739e5"] ;
316 -> 317 ;
318 [label=<gini = 0.0<br/>samples = 1<br/>value = [0, 0, 0, 0, 0, 1, 0, 0, 0, 0, 0, 0, 0, 0]>, fillcolor="#39e598"] ;
316 -> 318 ;
319 [label=<gini = 0.0<br/>samples = 4<br/>value = [0, 0, 0, 0, 0, 4, 0, 0, 0, 0, 0, 0, 0, 0]>, fillcolor="#39e598"] ;
315 -> 319 ;
320 [label=<y_minmax &le; 15.552<br/>gini = 0.625<br/>samples = 4<br/>value = [0, 0, 0, 0, 0, 0, 0, 0, 0, 2, 1, 0, 1, 0]>, fillcolor="#ccbdf6"] ;
314 -> 320 ;
321 [label=<gini = 0.0<br/>samples = 2<br/>value = [0, 0, 0, 0, 0, 0, 0, 0, 0, 2, 0, 0, 0, 0]>, fillcolor="#6739e5"] ;
320 -> 321 ;
322 [label=<x_std &le; 7.98<br/>gini = 0.5<br/>samples = 2<br/>value = [0, 0, 0, 0, 0, 0, 0, 0, 0, 0, 1, 0, 1, 0]>, fillcolor="#ffffff"] ;
320 -> 322 ;
323 [label=<gini = 0.0<br/>samples = 1<br/>value = [0, 0, 0, 0, 0, 0, 0, 0, 0, 0, 1, 0, 0, 0]>, fillcolor="#b139e5"] ;
322 -> 323 ;
324 [label=<gini = 0.0<br/>samples = 1<br/>value = [0, 0, 0, 0, 0, 0, 0, 0, 0, 0, 0, 0, 1, 0]>, fillcolor="#e53986"] ;
322 -> 324 ;
325 [label=<z_std &le; 0.519<br/>gini = 0.711<br/>samples = 374<br/>value = [1, 3, 0, 3, 130, 55, 3, 1, 5, 2, 14, 8, 142<br/>7]>, fillcolor="#fef5f9"] ;
1 -> 325 ;
326 [label=<x_mean &le; 41.047<br/>gini = 0.556<br/>samples = 13<br/>value = [0, 0, 0, 0, 1, 8, 0, 0, 0, 0, 0, 1, 3, 0]>, fillcolor="#9cf2cc"] ;
325 -> 326 ;
327 [label=<x_kurtosis &le; 1.373<br/>gini = 0.198<br/>samples = 9<br/>value = [0, 0, 0, 0, 0, 8, 0, 0, 0, 0, 0, 1, 0, 0]>, fillcolor="#52e8a5"] ;
326 -> 327 ;
328 [label=<gini = 0.0<br/>samples = 8<br/>value = [0, 0, 0, 0, 0, 8, 0, 0, 0, 0, 0, 0, 0, 0]>, fillcolor="#39e598"] ;
327 -> 328 ;
329 [label=<gini = 0.0<br/>samples = 1<br/>value = [0, 0, 0, 0, 0, 0, 0, 0, 0, 0, 0, 1, 0, 0]>, fillcolor="#e539d1"] ;
327 -> 329 ;
330 [label=<y_std &le; 0.914<br/>gini = 0.375<br/>samples = 4<br/>value = [0, 0, 0, 0, 1, 0, 0, 0, 0, 0, 0, 0, 3, 0]>, fillcolor="#ee7bae"] ;
326 -> 330 ;
331 [label=<gini = 0.0<br/>samples = 3<br/>value = [0, 0, 0, 0, 0, 0, 0, 0, 0, 0, 0, 0, 3, 0]>, fillcolor="#e53986"] ;
330 -> 331 ;
332 [label=<gini = 0.0<br/>samples = 1<br/>value = [0, 0, 0, 0, 1, 0, 0, 0, 0, 0, 0, 0, 0, 0]>, fillcolor="#39e54d"] ;
330 -> 332 ;
333 [label=<z_integration &le; 35.799<br/>gini = 0.704<br/>samples = 361<br/>value = [1, 3, 0, 3, 129, 47, 3, 1, 5, 2, 14, 7, 139<br/>7]>, fillcolor="#fef6fa"] ;
325 -> 333 ;
334 [label=<y_minmax &le; 11.107<br/>gini = 0.695<br/>samples = 349<br/>value = [1, 1, 0, 1, 127, 44, 3, 1, 5, 2, 13, 7, 137<br/>7]>, fillcolor="#fef6fa"] ;
333 -> 334 ;
335 [label=<y_rms &le; 39.156<br/>gini = 0.693<br/>samples = 314<br/>value = [1, 0, 0, 0, 106, 43, 2, 1, 4, 2, 13, 6, 130<br/>6]>, fillcolor="#fce8f1"] ;
334 -> 335 ;
336 [label=<y_mean &le; 51.794<br/>gini = 0.827<br/>samples = 57<br/>value = [1, 0, 0, 0, 7, 16, 2, 1, 4, 2, 13, 5, 0, 6]>, fillcolor="#f2fdf8"] ;
335 -> 336 ;
337 [label=<y_mean &le; 38.693<br/>gini = 0.791<br/>samples = 51<br/>value = [0, 0, 0, 0, 7, 16, 2, 0, 0, 2, 13, 5, 0, 6]>, fillcolor="#effdf7"] ;
336 -> 337 ;
338 [label=<z_rms &le; 38.644<br/>gini = 0.74<br/>samples = 20<br/>value = [0, 0, 0, 0, 5, 7, 0, 0, 0, 1, 2, 0, 0, 5]>, fillcolor="#e5fcf1"] ;
337 -> 338 ;
339 [label=<x_y &le; 0.098<br/>gini = 0.691<br/>samples = 9<br/>value = [0, 0, 0, 0, 2, 4, 0, 0, 0, 1, 2, 0, 0, 0]>, fillcolor="#c6f8e2"] ;
338 -> 339 ;
340 [label=<gini = 0.5<br/>samples = 6<br/>value = [0, 0, 0, 0, 0, 4, 0, 0, 0, 1, 1, 0, 0, 0]>, fillcolor="#88efc1"] ;
339 -> 340 ;
341 [label=<gini = 0.444<br/>samples = 3<br/>value = [0, 0, 0, 0, 2, 0, 0, 0, 0, 0, 1, 0, 0, 0]>, fillcolor="#9cf2a6"] ;
339 -> 341 ;
342 [label=<z_rms &le; 39.077<br/>gini = 0.645<br/>samples = 11<br/>value = [0, 0, 0, 0, 3, 3, 0, 0, 0, 0, 0, 0, 0, 5]>, fillcolor="#f8cece"] ;
338 -> 342 ;
343 [label=<gini = 0.62<br/>samples = 10<br/>value = [0, 0, 0, 0, 3, 2, 0, 0, 0, 0, 0, 0, 0, 5]>, fillcolor="#f8c6c7"] ;
342 -> 343 ;
344 [label=<gini = 0.0<br/>samples = 1<br/>value = [0, 0, 0, 0, 0, 1, 0, 0, 0, 0, 0, 0, 0, 0]>, fillcolor="#39e598"] ;
342 -> 344 ;
345 [label=<y_std &le; 2.872<br/>gini = 0.753<br/>samples = 31<br/>value = [0, 0, 0, 0, 2, 9, 2, 0, 0, 1, 11, 5, 0, 1]>, fillcolor="#f8edfd"] ;
337 -> 345 ;
346 [label=<z_minmax &le; 6.347<br/>gini = 0.724<br/>samples = 28<br/>value = [0, 0, 0, 0, 0, 8, 2, 0, 0, 1, 11, 5, 0, 1]>, fillcolor="#f3e1fb"] ;
345 -> 346 ;
347 [label=<gini = 0.693<br/>samples = 19<br/>value = [0, 0, 0, 0, 0, 3, 2, 0, 0, 1, 9, 4, 0, 0]>, fillcolor="#e5bdf6"] ;
346 -> 347 ;
348 [label=<gini = 0.617<br/>samples = 9<br/>value = [0, 0, 0, 0, 0, 5, 0, 0, 0, 0, 2, 1, 0, 1]>, fillcolor="#aaf4d3"] ;
346 -> 348 ;
349 [label=<y_mean &le; 41.977<br/>gini = 0.444<br/>samples = 3<br/>value = [0, 0, 0, 0, 2, 1, 0, 0, 0, 0, 0, 0, 0, 0]>, fillcolor="#9cf2a6"] ;
345 -> 349 ;
350 [label=<gini = 0.0<br/>samples = 2<br/>value = [0, 0, 0, 0, 2, 0, 0, 0, 0, 0, 0, 0, 0, 0]>, fillcolor="#39e54d"] ;
349 -> 350 ;
351 [label=<gini = 0.0<br/>samples = 1<br/>value = [0, 0, 0, 0, 0, 1, 0, 0, 0, 0, 0, 0, 0, 0]>, fillcolor="#39e598"] ;
349 -> 351 ;
352 [label=<x_mean &le; 37.971<br/>gini = 0.5<br/>samples = 6<br/>value = [1, 0, 0, 0, 0, 0, 0, 1, 4, 0, 0, 0, 0, 0]>, fillcolor="#889aef"] ;
336 -> 352 ;
353 [label=<x_kurtosis &le; -0.776<br/>gini = 0.5<br/>samples = 2<br/>value = [1, 0, 0, 0, 0, 0, 0, 1, 0, 0, 0, 0, 0, 0]>, fillcolor="#ffffff"] ;
352 -> 353 ;
354 [label=<gini = 0.0<br/>samples = 1<br/>value = [1, 0, 0, 0, 0, 0, 0, 0, 0, 0, 0, 0, 0, 0]>, fillcolor="#e58139"] ;
353 -> 354 ;
355 [label=<gini = 0.0<br/>samples = 1<br/>value = [0, 0, 0, 0, 0, 0, 0, 1, 0, 0, 0, 0, 0, 0]>, fillcolor="#399de5"] ;
353 -> 355 ;
356 [label=<gini = 0.0<br/>samples = 4<br/>value = [0, 0, 0, 0, 0, 0, 0, 0, 4, 0, 0, 0, 0, 0]>, fillcolor="#3956e5"] ;
352 -> 356 ;
357 [label=<x_rms &le; 49.535<br/>gini = 0.585<br/>samples = 257<br/>value = [0, 0, 0, 0, 99, 27, 0, 0, 0, 0, 0, 1, 130, 0]>, fillcolor="#fad8e7"] ;
335 -> 357 ;
358 [label=<z_rms &le; 44.899<br/>gini = 0.6<br/>samples = 231<br/>value = [0, 0, 0, 0, 99, 27, 0, 0, 0, 0, 0, 1, 104, 0]>, fillcolor="#fef7fa"] ;
357 -> 358 ;
359 [label=<y_minmax &le; 6.856<br/>gini = 0.563<br/>samples = 166<br/>value = [0, 0, 0, 0, 99, 27, 0, 0, 0, 0, 0, 1, 39, 0]>, fillcolor="#a1f3ab"] ;
358 -> 359 ;
360 [label=<x_mean &le; 43.698<br/>gini = 0.632<br/>samples = 127<br/>value = [0, 0, 0, 0, 62, 27, 0, 0, 0, 0, 0, 1, 37, 0]>, fillcolor="#c8f8ce"] ;
359 -> 360 ;
361 [label=<gini = 0.627<br/>samples = 124<br/>value = [0, 0, 0, 0, 62, 27, 0, 0, 0, 0, 0, 1, 34, 0]>, fillcolor="#c1f7c8"] ;
360 -> 361 ;
362 [label=<gini = 0.0<br/>samples = 3<br/>value = [0, 0, 0, 0, 0, 0, 0, 0, 0, 0, 0, 0, 3, 0]>, fillcolor="#e53986"] ;
360 -> 362 ;
363 [label=<x_minmax &le; 4.195<br/>gini = 0.097<br/>samples = 39<br/>value = [0, 0, 0, 0, 37, 0, 0, 0, 0, 0, 0, 0, 2, 0]>, fillcolor="#44e657"] ;
359 -> 363 ;
364 [label=<gini = 0.0<br/>samples = 32<br/>value = [0, 0, 0, 0, 32, 0, 0, 0, 0, 0, 0, 0, 0, 0]>, fillcolor="#39e54d"] ;
363 -> 364 ;
365 [label=<gini = 0.408<br/>samples = 7<br/>value = [0, 0, 0, 0, 5, 0, 0, 0, 0, 0, 0, 0, 2, 0]>, fillcolor="#88ef94"] ;
363 -> 365 ;
366 [label=<gini = 0.0<br/>samples = 65<br/>value = [0, 0, 0, 0, 0, 0, 0, 0, 0, 0, 0, 0, 65, 0]>, fillcolor="#e53986"] ;
358 -> 366 ;
367 [label=<gini = 0.0<br/>samples = 26<br/>value = [0, 0, 0, 0, 0, 0, 0, 0, 0, 0, 0, 0, 26, 0]>, fillcolor="#e53986"] ;
357 -> 367 ;
368 [label=<z_rms &le; 46.035<br/>gini = 0.594<br/>samples = 35<br/>value = [0, 1, 0, 1, 21, 1, 1, 0, 1, 0, 0, 1, 7, 1]>, fillcolor="#9cf2a6"] ;
334 -> 368 ;
369 [label=<x_std &le; 7.629<br/>gini = 0.566<br/>samples = 33<br/>value = [0, 1, 0, 1, 21, 1, 1, 0, 1, 0, 0, 1, 5, 1]>, fillcolor="#8ef099"] ;
368 -> 369 ;
370 [label=<x_minmax &le; 8.643<br/>gini = 0.498<br/>samples = 30<br/>value = [0, 1, 0, 1, 21, 1, 1, 0, 1, 0, 0, 1, 2, 1]>, fillcolor="#79ed86"] ;
369 -> 370 ;
371 [label=<x_std &le; 1.741<br/>gini = 0.338<br/>samples = 15<br/>value = [0, 0, 0, 0, 12, 0, 1, 0, 0, 0, 0, 0, 2, 0]>, fillcolor="#67eb76"] ;
370 -> 371 ;
372 [label=<x_std &le; 1.546<br/>gini = 0.255<br/>samples = 14<br/>value = [0, 0, 0, 0, 12, 0, 1, 0, 0, 0, 0, 0, 1, 0]>, fillcolor="#57e968"] ;
371 -> 372 ;
373 [label=<gini = 0.153<br/>samples = 12<br/>value = [0, 0, 0, 0, 11, 0, 0, 0, 0, 0, 0, 0, 1, 0]>, fillcolor="#4be75d"] ;
372 -> 373 ;
374 [label=<gini = 0.5<br/>samples = 2<br/>value = [0, 0, 0, 0, 1, 0, 1, 0, 0, 0, 0, 0, 0, 0]>, fillcolor="#ffffff"] ;
372 -> 374 ;
375 [label=<gini = 0.0<br/>samples = 1<br/>value = [0, 0, 0, 0, 0, 0, 0, 0, 0, 0, 0, 0, 1, 0]>, fillcolor="#e53986"] ;
371 -> 375 ;
376 [label=<y_kurtosis &le; 0.311<br/>gini = 0.613<br/>samples = 15<br/>value = [0, 1, 0, 1, 9, 1, 0, 0, 1, 0, 0, 1, 0, 1]>, fillcolor="#8ef099"] ;
370 -> 376 ;
377 [label=<z_minmax &le; 6.121<br/>gini = 0.34<br/>samples = 10<br/>value = [0, 0, 0, 0, 8, 1, 0, 0, 0, 0, 0, 1, 0, 0]>, fillcolor="#65eb75"] ;
376 -> 377 ;
378 [label=<gini = 0.0<br/>samples = 7<br/>value = [0, 0, 0, 0, 7, 0, 0, 0, 0, 0, 0, 0, 0, 0]>, fillcolor="#39e54d"] ;
377 -> 378 ;
379 [label=<gini = 0.667<br/>samples = 3<br/>value = [0, 0, 0, 0, 1, 1, 0, 0, 0, 0, 0, 1, 0, 0]>, fillcolor="#ffffff"] ;
377 -> 379 ;
380 [label=<y_rms &le; 37.72<br/>gini = 0.8<br/>samples = 5<br/>value = [0, 1, 0, 1, 1, 0, 0, 0, 1, 0, 0, 0, 0, 1]>, fillcolor="#ffffff"] ;
376 -> 380 ;
381 [label=<gini = 0.5<br/>samples = 2<br/>value = [0, 1, 0, 0, 0, 0, 0, 0, 0, 0, 0, 0, 0, 1]>, fillcolor="#ffffff"] ;
380 -> 381 ;
382 [label=<gini = 0.667<br/>samples = 3<br/>value = [0, 0, 0, 1, 1, 0, 0, 0, 1, 0, 0, 0, 0, 0]>, fillcolor="#ffffff"] ;
380 -> 382 ;
383 [label=<gini = 0.0<br/>samples = 3<br/>value = [0, 0, 0, 0, 0, 0, 0, 0, 0, 0, 0, 0, 3, 0]>, fillcolor="#e53986"] ;
369 -> 383 ;
384 [label=<gini = 0.0<br/>samples = 2<br/>value = [0, 0, 0, 0, 0, 0, 0, 0, 0, 0, 0, 0, 2, 0]>, fillcolor="#e53986"] ;
368 -> 384 ;
385 [label=<z_std &le; 1.998<br/>gini = 0.819<br/>samples = 12<br/>value = [0, 2, 0, 2, 2, 3, 0, 0, 0, 0, 1, 0, 2, 0]>, fillcolor="#ebfcf5"] ;
333 -> 385 ;
386 [label=<z_minmax &le; 4.704<br/>gini = 0.741<br/>samples = 9<br/>value = [0, 0, 0, 2, 2, 3, 0, 0, 0, 0, 0, 0, 2, 0]>, fillcolor="#e3fbf0"] ;
385 -> 386 ;
387 [label=<x_rms &le; 40.63<br/>gini = 0.48<br/>samples = 5<br/>value = [0, 0, 0, 0, 0, 3, 0, 0, 0, 0, 0, 0, 2, 0]>, fillcolor="#bdf6dd"] ;
386 -> 387 ;
388 [label=<gini = 0.0<br/>samples = 3<br/>value = [0, 0, 0, 0, 0, 3, 0, 0, 0, 0, 0, 0, 0, 0]>, fillcolor="#39e598"] ;
387 -> 388 ;
389 [label=<gini = 0.0<br/>samples = 2<br/>value = [0, 0, 0, 0, 0, 0, 0, 0, 0, 0, 0, 0, 2, 0]>, fillcolor="#e53986"] ;
387 -> 389 ;
390 [label=<z_mean &le; 49.932<br/>gini = 0.5<br/>samples = 4<br/>value = [0, 0, 0, 2, 2, 0, 0, 0, 0, 0, 0, 0, 0, 0]>, fillcolor="#ffffff"] ;
386 -> 390 ;
391 [label=<gini = 0.0<br/>samples = 1<br/>value = [0, 0, 0, 0, 1, 0, 0, 0, 0, 0, 0, 0, 0, 0]>, fillcolor="#39e54d"] ;
390 -> 391 ;
392 [label=<y_rms &le; 39.438<br/>gini = 0.444<br/>samples = 3<br/>value = [0, 0, 0, 2, 1, 0, 0, 0, 0, 0, 0, 0, 0, 0]>, fillcolor="#b6f29c"] ;
390 -> 392 ;
393 [label=<gini = 0.0<br/>samples = 2<br/>value = [0, 0, 0, 2, 0, 0, 0, 0, 0, 0, 0, 0, 0, 0]>, fillcolor="#6de539"] ;
392 -> 393 ;
394 [label=<gini = 0.0<br/>samples = 1<br/>value = [0, 0, 0, 0, 1, 0, 0, 0, 0, 0, 0, 0, 0, 0]>, fillcolor="#39e54d"] ;
392 -> 394 ;
395 [label=<x_kurtosis &le; 7.0<br/>gini = 0.444<br/>samples = 3<br/>value = [0, 2, 0, 0, 0, 0, 0, 0, 0, 0, 1, 0, 0, 0]>, fillcolor="#f2e49c"] ;
385 -> 395 ;
396 [label=<gini = 0.0<br/>samples = 2<br/>value = [0, 2, 0, 0, 0, 0, 0, 0, 0, 0, 0, 0, 0, 0]>, fillcolor="#e5c839"] ;
395 -> 396 ;
397 [label=<gini = 0.0<br/>samples = 1<br/>value = [0, 0, 0, 0, 0, 0, 0, 0, 0, 0, 1, 0, 0, 0]>, fillcolor="#b139e5"] ;
395 -> 397 ;
398 [label=<y_rms &le; 26.033<br/>gini = 0.84<br/>samples = 935<br/>value = [291, 36, 189, 46, 47, 61, 4, 33, 32, 47, 53, 25<br/>25, 46]>, fillcolor="#fbeee4"] ;
0 -> 398 [labeldistance=2.5, labelangle=45, headlabel="False"] ;
399 [label=<x_mean &le; 18.218<br/>gini = 0.871<br/>samples = 260<br/>value = [54, 17, 11, 25, 0, 0, 0, 32, 25, 1, 32, 25, 0<br/>38]>, fillcolor="#fdf6f1"] ;
398 -> 399 ;
400 [label=<y_kurtosis &le; 34.21<br/>gini = 0.869<br/>samples = 133<br/>value = [4, 11, 8, 20, 0, 0, 0, 21, 14, 0, 14, 16, 0<br/>25]>, fillcolor="#fef8f8"] ;
399 -> 400 ;
401 [label=<y_std &le; 4.886<br/>gini = 0.867<br/>samples = 131<br/>value = [4, 11, 6, 20, 0, 0, 0, 21, 14, 0, 14, 16, 0<br/>25]>, fillcolor="#fef8f8"] ;
400 -> 401 ;
402 [label=<x_std &le; 4.223<br/>gini = 0.855<br/>samples = 71<br/>value = [1, 7, 5, 17, 0, 0, 0, 8, 9, 0, 8, 4, 0, 12]>, fillcolor="#f3fdee"] ;
401 -> 402 ;
403 [label=<y_mean &le; 39.908<br/>gini = 0.861<br/>samples = 26<br/>value = [0, 2, 4, 1, 0, 0, 0, 4, 4, 0, 4, 3, 0, 4]>, fillcolor="#ffffff"] ;
402 -> 403 ;
404 [label=<z_rms &le; 13.564<br/>gini = 0.836<br/>samples = 16<br/>value = [0, 1, 2, 1, 0, 0, 0, 1, 1, 0, 4, 3, 0, 3]>, fillcolor="#f9f0fd"] ;
403 -> 404 ;
405 [label=<x_kurtosis &le; 9.713<br/>gini = 0.806<br/>samples = 14<br/>value = [0, 1, 1, 1, 0, 0, 0, 0, 1, 0, 4, 3, 0, 3]>, fillcolor="#f8edfd"] ;
404 -> 405 ;
406 [label=<z_minmax &le; 19.866<br/>gini = 0.781<br/>samples = 13<br/>value = [0, 1, 1, 0, 0, 0, 0, 0, 1, 0, 4, 3, 0, 3]>, fillcolor="#f7ebfc"] ;
405 -> 406 ;
407 [label=<gini = 0.765<br/>samples = 9<br/>value = [0, 1, 0, 0, 0, 0, 0, 0, 1, 0, 2, 2, 0, 3]>, fillcolor="#fbe3e3"] ;
406 -> 407 ;
408 [label=<gini = 0.625<br/>samples = 4<br/>value = [0, 0, 1, 0, 0, 0, 0, 0, 0, 0, 2, 1, 0, 0]>, fillcolor="#e5bdf6"] ;
406 -> 408 ;
409 [label=<gini = 0.0<br/>samples = 1<br/>value = [0, 0, 0, 1, 0, 0, 0, 0, 0, 0, 0, 0, 0, 0]>, fillcolor="#6de539"] ;
405 -> 409 ;
410 [label=<y_kurtosis &le; 0.262<br/>gini = 0.5<br/>samples = 2<br/>value = [0, 0, 1, 0, 0, 0, 0, 1, 0, 0, 0, 0, 0, 0]>, fillcolor="#ffffff"] ;
404 -> 410 ;
411 [label=<gini = 0.0<br/>samples = 1<br/>value = [0, 0, 0, 0, 0, 0, 0, 1, 0, 0, 0, 0, 0, 0]>, fillcolor="#399de5"] ;
410 -> 411 ;
412 [label=<gini = 0.0<br/>samples = 1<br/>value = [0, 0, 1, 0, 0, 0, 0, 0, 0, 0, 0, 0, 0, 0]>, fillcolor="#b7e539"] ;
410 -> 412 ;
413 [label=<x_minmax &le; 21.146<br/>gini = 0.76<br/>samples = 10<br/>value = [0, 1, 2, 0, 0, 0, 0, 3, 3, 0, 0, 0, 0, 1]>, fillcolor="#ffffff"] ;
403 -> 413 ;
414 [label=<x_y &le; -0.048<br/>gini = 0.741<br/>samples = 9<br/>value = [0, 1, 1, 0, 0, 0, 0, 3, 3, 0, 0, 0, 0, 1]>, fillcolor="#ffffff"] ;
413 -> 414 ;
415 [label=<gini = 0.0<br/>samples = 1<br/>value = [0, 1, 0, 0, 0, 0, 0, 0, 0, 0, 0, 0, 0, 0]>, fillcolor="#e5c839"] ;
414 -> 415 ;
416 [label=<x_integration &le; 29.305<br/>gini = 0.688<br/>samples = 8<br/>value = [0, 0, 1, 0, 0, 0, 0, 3, 3, 0, 0, 0, 0, 1]>, fillcolor="#ffffff"] ;
414 -> 416 ;
417 [label=<gini = 0.611<br/>samples = 6<br/>value = [0, 0, 1, 0, 0, 0, 0, 2, 3, 0, 0, 0, 0, 0]>, fillcolor="#ced5f8"] ;
416 -> 417 ;
418 [label=<gini = 0.5<br/>samples = 2<br/>value = [0, 0, 0, 0, 0, 0, 0, 1, 0, 0, 0, 0, 0, 1]>, fillcolor="#ffffff"] ;
416 -> 418 ;
419 [label=<gini = 0.0<br/>samples = 1<br/>value = [0, 0, 1, 0, 0, 0, 0, 0, 0, 0, 0, 0, 0, 0]>, fillcolor="#b7e539"] ;
413 -> 419 ;
420 [label=<x_mean &le; 14.011<br/>gini = 0.8<br/>samples = 45<br/>value = [1, 5, 1, 16, 0, 0, 0, 4, 5, 0, 4, 1, 0, 8]>, fillcolor="#dff9d4"] ;
402 -> 420 ;
421 [label=<x_z &le; 0.176<br/>gini = 0.56<br/>samples = 19<br/>value = [0, 1, 0, 11, 0, 0, 0, 0, 1, 0, 0, 0, 0, 6]>, fillcolor="#c7f5b3"] ;
420 -> 421 ;
422 [label=<z_mean &le; 32.804<br/>gini = 0.486<br/>samples = 12<br/>value = [0, 0, 0, 8, 0, 0, 0, 0, 1, 0, 0, 0, 0, 3]>, fillcolor="#aef191"] ;
421 -> 422 ;
423 [label=<gini = 0.0<br/>samples = 1<br/>value = [0, 0, 0, 0, 0, 0, 0, 0, 0, 0, 0, 0, 0, 1]>, fillcolor="#e5393c"] ;
422 -> 423 ;
424 [label=<x_rms &le; 11.893<br/>gini = 0.43<br/>samples = 11<br/>value = [0, 0, 0, 8, 0, 0, 0, 0, 1, 0, 0, 0, 0, 2]>, fillcolor="#9eee7b"] ;
422 -> 424 ;
425 [label=<gini = 0.0<br/>samples = 1<br/>value = [0, 0, 0, 0, 0, 0, 0, 0, 0, 0, 0, 0, 0, 1]>, fillcolor="#e5393c"] ;
424 -> 425 ;
426 [label=<gini = 0.34<br/>samples = 10<br/>value = [0, 0, 0, 8, 0, 0, 0, 0, 1, 0, 0, 0, 0, 1]>, fillcolor="#8deb65"] ;
424 -> 426 ;
427 [label=<y_z &le; 0.002<br/>gini = 0.612<br/>samples = 7<br/>value = [0, 1, 0, 3, 0, 0, 0, 0, 0, 0, 0, 0, 0, 3]>, fillcolor="#ffffff"] ;
421 -> 427 ;
428 [label=<gini = 0.0<br/>samples = 2<br/>value = [0, 0, 0, 2, 0, 0, 0, 0, 0, 0, 0, 0, 0, 0]>, fillcolor="#6de539"] ;
427 -> 428 ;
429 [label=<y_rms &le; 14.432<br/>gini = 0.56<br/>samples = 5<br/>value = [0, 1, 0, 1, 0, 0, 0, 0, 0, 0, 0, 0, 0, 3]>, fillcolor="#f29c9e"] ;
427 -> 429 ;
430 [label=<gini = 0.375<br/>samples = 4<br/>value = [0, 1, 0, 0, 0, 0, 0, 0, 0, 0, 0, 0, 0, 3]>, fillcolor="#ee7b7d"] ;
429 -> 430 ;
431 [label=<gini = 0.0<br/>samples = 1<br/>value = [0, 0, 0, 1, 0, 0, 0, 0, 0, 0, 0, 0, 0, 0]>, fillcolor="#6de539"] ;
429 -> 431 ;
432 [label=<x_z &le; 0.877<br/>gini = 0.858<br/>samples = 26<br/>value = [1, 4, 1, 5, 0, 0, 0, 4, 4, 0, 4, 1, 0, 2]>, fillcolor="#f8fef6"] ;
420 -> 432 ;
433 [label=<y_mean &le; 41.037<br/>gini = 0.854<br/>samples = 24<br/>value = [1, 4, 1, 5, 0, 0, 0, 4, 2, 0, 4, 1, 0, 2]>, fillcolor="#f8fef5"] ;
432 -> 433 ;
434 [label=<x_minmax &le; 40.22<br/>gini = 0.842<br/>samples = 19<br/>value = [1, 4, 1, 3, 0, 0, 0, 3, 0, 0, 4, 1, 0, 2]>, fillcolor="#ffffff"] ;
433 -> 434 ;
435 [label=<gini = 0.827<br/>samples = 18<br/>value = [0, 4, 1, 3, 0, 0, 0, 3, 0, 0, 4, 1, 0, 2]>, fillcolor="#ffffff"] ;
434 -> 435 ;
436 [label=<gini = 0.0<br/>samples = 1<br/>value = [1, 0, 0, 0, 0, 0, 0, 0, 0, 0, 0, 0, 0, 0]>, fillcolor="#e58139"] ;
434 -> 436 ;
437 [label=<y_mean &le; 42.33<br/>gini = 0.64<br/>samples = 5<br/>value = [0, 0, 0, 2, 0, 0, 0, 1, 2, 0, 0, 0, 0, 0]>, fillcolor="#ffffff"] ;
433 -> 437 ;
438 [label=<gini = 0.444<br/>samples = 3<br/>value = [0, 0, 0, 2, 0, 0, 0, 1, 0, 0, 0, 0, 0, 0]>, fillcolor="#b6f29c"] ;
437 -> 438 ;
439 [label=<gini = 0.0<br/>samples = 2<br/>value = [0, 0, 0, 0, 0, 0, 0, 0, 2, 0, 0, 0, 0, 0]>, fillcolor="#3956e5"] ;
437 -> 439 ;
440 [label=<gini = 0.0<br/>samples = 2<br/>value = [0, 0, 0, 0, 0, 0, 0, 0, 2, 0, 0, 0, 0, 0]>, fillcolor="#3956e5"] ;
432 -> 440 ;
441 [label=<x_integration &le; 32.548<br/>gini = 0.839<br/>samples = 60<br/>value = [3, 4, 1, 3, 0, 0, 0, 13, 5, 0, 6, 12, 0, 13]>, fillcolor="#ffffff"] ;
401 -> 441 ;
442 [label=<y_minmax &le; 39.674<br/>gini = 0.844<br/>samples = 56<br/>value = [3, 4, 1, 3, 0, 0, 0, 12, 5, 0, 6, 9, 0, 13]>, fillcolor="#fefbfb"] ;
441 -> 442 ;
443 [label=<y_kurtosis &le; 2.249<br/>gini = 0.84<br/>samples = 55<br/>value = [2, 4, 1, 3, 0, 0, 0, 12, 5, 0, 6, 9, 0, 13]>, fillcolor="#fefafa"] ;
442 -> 443 ;
444 [label=<x_integration &le; 28.381<br/>gini = 0.844<br/>samples = 52<br/>value = [2, 4, 1, 3, 0, 0, 0, 9, 5, 0, 6, 9, 0, 13]>, fillcolor="#fdeded"] ;
443 -> 444 ;
445 [label=<z_std &le; 5.6<br/>gini = 0.854<br/>samples = 41<br/>value = [2, 3, 1, 3, 0, 0, 0, 9, 4, 0, 5, 6, 0, 8]>, fillcolor="#f9fcfe"] ;
444 -> 445 ;
446 [label=<gini = 0.826<br/>samples = 31<br/>value = [2, 2, 1, 3, 0, 0, 0, 8, 4, 0, 1, 2, 0, 8]>, fillcolor="#ffffff"] ;
445 -> 446 ;
447 [label=<gini = 0.66<br/>samples = 10<br/>value = [0, 1, 0, 0, 0, 0, 0, 1, 0, 0, 4, 4, 0, 0]>, fillcolor="#ffffff"] ;
445 -> 447 ;
448 [label=<y_z &le; -0.4<br/>gini = 0.694<br/>samples = 11<br/>value = [0, 1, 0, 0, 0, 0, 0, 0, 1, 0, 1, 3, 0, 5]>, fillcolor="#f8cece"] ;
444 -> 448 ;
449 [label=<gini = 0.32<br/>samples = 5<br/>value = [0, 0, 0, 0, 0, 0, 0, 0, 1, 0, 0, 0, 0, 4]>, fillcolor="#ec6a6d"] ;
448 -> 449 ;
450 [label=<gini = 0.667<br/>samples = 6<br/>value = [0, 1, 0, 0, 0, 0, 0, 0, 0, 0, 1, 3, 0, 1]>, fillcolor="#f5b0ed"] ;
448 -> 450 ;
451 [label=<gini = 0.0<br/>samples = 3<br/>value = [0, 0, 0, 0, 0, 0, 0, 3, 0, 0, 0, 0, 0, 0]>, fillcolor="#399de5"] ;
443 -> 451 ;
452 [label=<gini = 0.0<br/>samples = 1<br/>value = [1, 0, 0, 0, 0, 0, 0, 0, 0, 0, 0, 0, 0, 0]>, fillcolor="#e58139"] ;
442 -> 452 ;
453 [label=<z_minmax &le; 14.386<br/>gini = 0.375<br/>samples = 4<br/>value = [0, 0, 0, 0, 0, 0, 0, 1, 0, 0, 0, 3, 0, 0]>, fillcolor="#ee7be0"] ;
441 -> 453 ;
454 [label=<gini = 0.0<br/>samples = 1<br/>value = [0, 0, 0, 0, 0, 0, 0, 1, 0, 0, 0, 0, 0, 0]>, fillcolor="#399de5"] ;
453 -> 454 ;
455 [label=<gini = 0.0<br/>samples = 3<br/>value = [0, 0, 0, 0, 0, 0, 0, 0, 0, 0, 0, 3, 0, 0]>, fillcolor="#e539d1"] ;
453 -> 455 ;
456 [label=<gini = 0.0<br/>samples = 2<br/>value = [0, 0, 2, 0, 0, 0, 0, 0, 0, 0, 0, 0, 0, 0]>, fillcolor="#b7e539"] ;
400 -> 456 ;
457 [label=<y_std &le; 6.696<br/>gini = 0.79<br/>samples = 127<br/>value = [50, 6, 3, 5, 0, 0, 0, 11, 11, 1, 18, 9, 0<br/>13]>, fillcolor="#f7dac5"] ;
399 -> 457 ;
458 [label=<x_rms &le; 20.94<br/>gini = 0.866<br/>samples = 82<br/>value = [18, 6, 3, 5, 0, 0, 0, 8, 10, 1, 13, 7, 0, 11]>, fillcolor="#fdf6f1"] ;
457 -> 458 ;
459 [label=<z_std &le; 8.597<br/>gini = 0.831<br/>samples = 19<br/>value = [1, 0, 2, 0, 0, 0, 0, 3, 3, 0, 3, 2, 0, 5]>, fillcolor="#fce6e7"] ;
458 -> 459 ;
460 [label=<x_minmax &le; 23.058<br/>gini = 0.812<br/>samples = 16<br/>value = [1, 0, 2, 0, 0, 0, 0, 3, 2, 0, 2, 1, 0, 5]>, fillcolor="#fbe1e1"] ;
459 -> 460 ;
461 [label=<x_z &le; 0.297<br/>gini = 0.76<br/>samples = 10<br/>value = [0, 0, 0, 0, 0, 0, 0, 3, 1, 0, 2, 1, 0, 3]>, fillcolor="#ffffff"] ;
460 -> 461 ;
462 [label=<x_integration &le; 18.191<br/>gini = 0.667<br/>samples = 6<br/>value = [0, 0, 0, 0, 0, 0, 0, 3, 1, 0, 1, 0, 0, 1]>, fillcolor="#b0d8f5"] ;
461 -> 462 ;
463 [label=<gini = 0.0<br/>samples = 1<br/>value = [0, 0, 0, 0, 0, 0, 0, 0, 1, 0, 0, 0, 0, 0]>, fillcolor="#3956e5"] ;
462 -> 463 ;
464 [label=<x_rms &le; 18.948<br/>gini = 0.56<br/>samples = 5<br/>value = [0, 0, 0, 0, 0, 0, 0, 3, 0, 0, 1, 0, 0, 1]>, fillcolor="#9ccef2"] ;
462 -> 464 ;
465 [label=<gini = 0.0<br/>samples = 1<br/>value = [0, 0, 0, 0, 0, 0, 0, 0, 0, 0, 0, 0, 0, 1]>, fillcolor="#e5393c"] ;
464 -> 465 ;
466 [label=<gini = 0.375<br/>samples = 4<br/>value = [0, 0, 0, 0, 0, 0, 0, 3, 0, 0, 1, 0, 0, 0]>, fillcolor="#7bbeee"] ;
464 -> 466 ;
467 [label=<z_integration &le; 20.228<br/>gini = 0.625<br/>samples = 4<br/>value = [0, 0, 0, 0, 0, 0, 0, 0, 0, 0, 1, 1, 0, 2]>, fillcolor="#f6bdbe"] ;
461 -> 467 ;
468 [label=<gini = 0.0<br/>samples = 1<br/>value = [0, 0, 0, 0, 0, 0, 0, 0, 0, 0, 0, 1, 0, 0]>, fillcolor="#e539d1"] ;
467 -> 468 ;
469 [label=<y_rms &le; 20.133<br/>gini = 0.444<br/>samples = 3<br/>value = [0, 0, 0, 0, 0, 0, 0, 0, 0, 0, 1, 0, 0, 2]>, fillcolor="#f29c9e"] ;
467 -> 469 ;
470 [label=<gini = 0.5<br/>samples = 2<br/>value = [0, 0, 0, 0, 0, 0, 0, 0, 0, 0, 1, 0, 0, 1]>, fillcolor="#ffffff"] ;
469 -> 470 ;
471 [label=<gini = 0.0<br/>samples = 1<br/>value = [0, 0, 0, 0, 0, 0, 0, 0, 0, 0, 0, 0, 0, 1]>, fillcolor="#e5393c"] ;
469 -> 471 ;
472 [label=<x_z &le; -0.274<br/>gini = 0.722<br/>samples = 6<br/>value = [1, 0, 2, 0, 0, 0, 0, 0, 1, 0, 0, 0, 0, 2]>, fillcolor="#ffffff"] ;
460 -> 472 ;
473 [label=<y_mean &le; 46.224<br/>gini = 0.5<br/>samples = 2<br/>value = [1, 0, 0, 0, 0, 0, 0, 0, 0, 0, 0, 0, 0, 1]>, fillcolor="#ffffff"] ;
472 -> 473 ;
474 [label=<gini = 0.0<br/>samples = 1<br/>value = [0, 0, 0, 0, 0, 0, 0, 0, 0, 0, 0, 0, 0, 1]>, fillcolor="#e5393c"] ;
473 -> 474 ;
475 [label=<gini = 0.0<br/>samples = 1<br/>value = [1, 0, 0, 0, 0, 0, 0, 0, 0, 0, 0, 0, 0, 0]>, fillcolor="#e58139"] ;
473 -> 475 ;
476 [label=<x_mean &le; 19.781<br/>gini = 0.625<br/>samples = 4<br/>value = [0, 0, 2, 0, 0, 0, 0, 0, 1, 0, 0, 0, 0, 1]>, fillcolor="#e7f6bd"] ;
472 -> 476 ;
477 [label=<x_y &le; 0.306<br/>gini = 0.444<br/>samples = 3<br/>value = [0, 0, 2, 0, 0, 0, 0, 0, 1, 0, 0, 0, 0, 0]>, fillcolor="#dbf29c"] ;
476 -> 477 ;
478 [label=<gini = 0.0<br/>samples = 1<br/>value = [0, 0, 0, 0, 0, 0, 0, 0, 1, 0, 0, 0, 0, 0]>, fillcolor="#3956e5"] ;
477 -> 478 ;
479 [label=<gini = 0.0<br/>samples = 2<br/>value = [0, 0, 2, 0, 0, 0, 0, 0, 0, 0, 0, 0, 0, 0]>, fillcolor="#b7e539"] ;
477 -> 479 ;
480 [label=<gini = 0.0<br/>samples = 1<br/>value = [0, 0, 0, 0, 0, 0, 0, 0, 0, 0, 0, 0, 0, 1]>, fillcolor="#e5393c"] ;
476 -> 480 ;
481 [label=<x_minmax &le; 21.945<br/>gini = 0.667<br/>samples = 3<br/>value = [0, 0, 0, 0, 0, 0, 0, 0, 1, 0, 1, 1, 0, 0]>, fillcolor="#ffffff"] ;
459 -> 481 ;
482 [label=<gini = 0.0<br/>samples = 1<br/>value = [0, 0, 0, 0, 0, 0, 0, 0, 1, 0, 0, 0, 0, 0]>, fillcolor="#3956e5"] ;
481 -> 482 ;
483 [label=<x_rms &le; 19.628<br/>gini = 0.5<br/>samples = 2<br/>value = [0, 0, 0, 0, 0, 0, 0, 0, 0, 0, 1, 1, 0, 0]>, fillcolor="#ffffff"] ;
481 -> 483 ;
484 [label=<gini = 0.0<br/>samples = 1<br/>value = [0, 0, 0, 0, 0, 0, 0, 0, 0, 0, 0, 1, 0, 0]>, fillcolor="#e539d1"] ;
483 -> 484 ;
485 [label=<gini = 0.0<br/>samples = 1<br/>value = [0, 0, 0, 0, 0, 0, 0, 0, 0, 0, 1, 0, 0, 0]>, fillcolor="#b139e5"] ;
483 -> 485 ;
486 [label=<x_integration &le; 25.737<br/>gini = 0.852<br/>samples = 63<br/>value = [17, 6, 1, 5, 0, 0, 0, 5, 7, 1, 10, 5, 0, 6]>, fillcolor="#fceee5"] ;
458 -> 486 ;
487 [label=<x_z &le; 0.669<br/>gini = 0.832<br/>samples = 44<br/>value = [14, 5, 1, 5, 0, 0, 0, 2, 6, 1, 3, 2, 0, 5]>, fillcolor="#fae4d5"] ;
486 -> 487 ;
488 [label=<z_integration &le; 27.755<br/>gini = 0.657<br/>samples = 26<br/>value = [14, 0, 1, 0, 0, 0, 0, 2, 5, 1, 1, 0, 0, 2]>, fillcolor="#f4c9aa"] ;
487 -> 488 ;
489 [label=<y_rms &le; 24.955<br/>gini = 0.761<br/>samples = 17<br/>value = [6, 0, 1, 0, 0, 0, 0, 1, 5, 1, 1, 0, 0, 2]>, fillcolor="#fdf4ee"] ;
488 -> 489 ;
490 [label=<y_integration &le; 35.507<br/>gini = 0.735<br/>samples = 14<br/>value = [6, 0, 1, 0, 0, 0, 0, 1, 3, 0, 1, 0, 0, 2]>, fillcolor="#f8ddc9"] ;
489 -> 490 ;
491 [label=<gini = 0.698<br/>samples = 13<br/>value = [6, 0, 0, 0, 0, 0, 0, 1, 3, 0, 1, 0, 0, 2]>, fillcolor="#f7d9c4"] ;
490 -> 491 ;
492 [label=<gini = 0.0<br/>samples = 1<br/>value = [0, 0, 1, 0, 0, 0, 0, 0, 0, 0, 0, 0, 0, 0]>, fillcolor="#b7e539"] ;
490 -> 492 ;
493 [label=<z_kurtosis &le; -0.546<br/>gini = 0.444<br/>samples = 3<br/>value = [0, 0, 0, 0, 0, 0, 0, 0, 2, 1, 0, 0, 0, 0]>, fillcolor="#9caaf2"] ;
489 -> 493 ;
494 [label=<gini = 0.0<br/>samples = 1<br/>value = [0, 0, 0, 0, 0, 0, 0, 0, 0, 1, 0, 0, 0, 0]>, fillcolor="#6739e5"] ;
493 -> 494 ;
495 [label=<gini = 0.0<br/>samples = 2<br/>value = [0, 0, 0, 0, 0, 0, 0, 0, 2, 0, 0, 0, 0, 0]>, fillcolor="#3956e5"] ;
493 -> 495 ;
496 [label=<y_minmax &le; 26.817<br/>gini = 0.198<br/>samples = 9<br/>value = [8, 0, 0, 0, 0, 0, 0, 1, 0, 0, 0, 0, 0, 0]>, fillcolor="#e89152"] ;
488 -> 496 ;
497 [label=<z_kurtosis &le; -0.225<br/>gini = 0.375<br/>samples = 4<br/>value = [3, 0, 0, 0, 0, 0, 0, 1, 0, 0, 0, 0, 0, 0]>, fillcolor="#eeab7b"] ;
496 -> 497 ;
498 [label=<gini = 0.0<br/>samples = 3<br/>value = [3, 0, 0, 0, 0, 0, 0, 0, 0, 0, 0, 0, 0, 0]>, fillcolor="#e58139"] ;
497 -> 498 ;
499 [label=<gini = 0.0<br/>samples = 1<br/>value = [0, 0, 0, 0, 0, 0, 0, 1, 0, 0, 0, 0, 0, 0]>, fillcolor="#399de5"] ;
497 -> 499 ;
500 [label=<gini = 0.0<br/>samples = 5<br/>value = [5, 0, 0, 0, 0, 0, 0, 0, 0, 0, 0, 0, 0, 0]>, fillcolor="#e58139"] ;
496 -> 500 ;
501 [label=<x_z &le; 0.683<br/>gini = 0.79<br/>samples = 18<br/>value = [0, 5, 0, 5, 0, 0, 0, 0, 1, 0, 2, 2, 0, 3]>, fillcolor="#ffffff"] ;
487 -> 501 ;
502 [label=<gini = 0.0<br/>samples = 1<br/>value = [0, 0, 0, 0, 0, 0, 0, 0, 0, 0, 0, 1, 0, 0]>, fillcolor="#e539d1"] ;
501 -> 502 ;
503 [label=<x_minmax &le; 46.557<br/>gini = 0.775<br/>samples = 17<br/>value = [0, 5, 0, 5, 0, 0, 0, 0, 1, 0, 2, 1, 0, 3]>, fillcolor="#ffffff"] ;
501 -> 503 ;
504 [label=<x_std &le; 8.068<br/>gini = 0.758<br/>samples = 16<br/>value = [0, 5, 0, 5, 0, 0, 0, 0, 1, 0, 1, 1, 0, 3]>, fillcolor="#ffffff"] ;
503 -> 504 ;
505 [label=<gini = 0.5<br/>samples = 2<br/>value = [0, 0, 0, 0, 0, 0, 0, 0, 1, 0, 0, 1, 0, 0]>, fillcolor="#ffffff"] ;
504 -> 505 ;
506 [label=<gini = 0.694<br/>samples = 14<br/>value = [0, 5, 0, 5, 0, 0, 0, 0, 0, 0, 1, 0, 0, 3]>, fillcolor="#ffffff"] ;
504 -> 506 ;
507 [label=<gini = 0.0<br/>samples = 1<br/>value = [0, 0, 0, 0, 0, 0, 0, 0, 0, 0, 1, 0, 0, 0]>, fillcolor="#b139e5"] ;
503 -> 507 ;
508 [label=<x_mean &le; 23.963<br/>gini = 0.781<br/>samples = 19<br/>value = [3, 1, 0, 0, 0, 0, 0, 3, 1, 0, 7, 3, 0, 1]>, fillcolor="#eccef8"] ;
486 -> 508 ;
509 [label=<x_mean &le; 21.009<br/>gini = 0.827<br/>samples = 14<br/>value = [3, 1, 0, 0, 0, 0, 0, 2, 1, 0, 3, 3, 0, 1]>, fillcolor="#ffffff"] ;
508 -> 509 ;
510 [label=<x_z &le; 0.601<br/>gini = 0.778<br/>samples = 6<br/>value = [0, 1, 0, 0, 0, 0, 0, 2, 0, 0, 1, 1, 0, 1]>, fillcolor="#d7ebfa"] ;
509 -> 510 ;
511 [label=<z_std &le; 6.02<br/>gini = 0.444<br/>samples = 3<br/>value = [0, 0, 0, 0, 0, 0, 0, 2, 0, 0, 1, 0, 0, 0]>, fillcolor="#9ccef2"] ;
510 -> 511 ;
512 [label=<gini = 0.0<br/>samples = 2<br/>value = [0, 0, 0, 0, 0, 0, 0, 2, 0, 0, 0, 0, 0, 0]>, fillcolor="#399de5"] ;
511 -> 512 ;
513 [label=<gini = 0.0<br/>samples = 1<br/>value = [0, 0, 0, 0, 0, 0, 0, 0, 0, 0, 1, 0, 0, 0]>, fillcolor="#b139e5"] ;
511 -> 513 ;
514 [label=<z_kurtosis &le; -0.623<br/>gini = 0.667<br/>samples = 3<br/>value = [0, 1, 0, 0, 0, 0, 0, 0, 0, 0, 0, 1, 0, 1]>, fillcolor="#ffffff"] ;
510 -> 514 ;
515 [label=<gini = 0.5<br/>samples = 2<br/>value = [0, 1, 0, 0, 0, 0, 0, 0, 0, 0, 0, 1, 0, 0]>, fillcolor="#ffffff"] ;
514 -> 515 ;
516 [label=<gini = 0.0<br/>samples = 1<br/>value = [0, 0, 0, 0, 0, 0, 0, 0, 0, 0, 0, 0, 0, 1]>, fillcolor="#e5393c"] ;
514 -> 516 ;
517 [label=<x_rms &le; 23.672<br/>gini = 0.719<br/>samples = 8<br/>value = [3, 0, 0, 0, 0, 0, 0, 0, 1, 0, 2, 2, 0, 0]>, fillcolor="#fbeade"] ;
509 -> 517 ;
518 [label=<y_kurtosis &le; 1.516<br/>gini = 0.56<br/>samples = 5<br/>value = [3, 0, 0, 0, 0, 0, 0, 0, 1, 0, 0, 1, 0, 0]>, fillcolor="#f2c09c"] ;
517 -> 518 ;
519 [label=<gini = 0.375<br/>samples = 4<br/>value = [3, 0, 0, 0, 0, 0, 0, 0, 1, 0, 0, 0, 0, 0]>, fillcolor="#eeab7b"] ;
518 -> 519 ;
520 [label=<gini = 0.0<br/>samples = 1<br/>value = [0, 0, 0, 0, 0, 0, 0, 0, 0, 0, 0, 1, 0, 0]>, fillcolor="#e539d1"] ;
518 -> 520 ;
521 [label=<y_integration &le; 23.727<br/>gini = 0.444<br/>samples = 3<br/>value = [0, 0, 0, 0, 0, 0, 0, 0, 0, 0, 2, 1, 0, 0]>, fillcolor="#d89cf2"] ;
517 -> 521 ;
522 [label=<gini = 0.0<br/>samples = 1<br/>value = [0, 0, 0, 0, 0, 0, 0, 0, 0, 0, 0, 1, 0, 0]>, fillcolor="#e539d1"] ;
521 -> 522 ;
523 [label=<gini = 0.0<br/>samples = 2<br/>value = [0, 0, 0, 0, 0, 0, 0, 0, 0, 0, 2, 0, 0, 0]>, fillcolor="#b139e5"] ;
521 -> 523 ;
524 [label=<y_z &le; -0.318<br/>gini = 0.32<br/>samples = 5<br/>value = [0, 0, 0, 0, 0, 0, 0, 1, 0, 0, 4, 0, 0, 0]>, fillcolor="#c46aec"] ;
508 -> 524 ;
525 [label=<gini = 0.0<br/>samples = 1<br/>value = [0, 0, 0, 0, 0, 0, 0, 1, 0, 0, 0, 0, 0, 0]>, fillcolor="#399de5"] ;
524 -> 525 ;
526 [label=<gini = 0.0<br/>samples = 4<br/>value = [0, 0, 0, 0, 0, 0, 0, 0, 0, 0, 4, 0, 0, 0]>, fillcolor="#b139e5"] ;
524 -> 526 ;
527 [label=<x_std &le; 9.522<br/>gini = 0.473<br/>samples = 45<br/>value = [32, 0, 0, 0, 0, 0, 0, 3, 1, 0, 5, 2, 0, 2]>, fillcolor="#edaa79"] ;
457 -> 527 ;
528 [label=<x_integration &le; 23.804<br/>gini = 0.429<br/>samples = 43<br/>value = [32, 0, 0, 0, 0, 0, 0, 3, 1, 0, 4, 2, 0, 1]>, fillcolor="#eca571"] ;
527 -> 528 ;
529 [label=<y_mean &le; 48.252<br/>gini = 0.244<br/>samples = 30<br/>value = [26, 0, 0, 0, 0, 0, 0, 1, 1, 0, 1, 1, 0, 0]>, fillcolor="#e99254"] ;
528 -> 529 ;
530 [label=<z_rms &le; 25.024<br/>gini = 0.8<br/>samples = 5<br/>value = [1, 0, 0, 0, 0, 0, 0, 1, 1, 0, 1, 1, 0, 0]>, fillcolor="#ffffff"] ;
529 -> 530 ;
531 [label=<y_std &le; 6.925<br/>gini = 0.75<br/>samples = 4<br/>value = [1, 0, 0, 0, 0, 0, 0, 1, 1, 0, 1, 0, 0, 0]>, fillcolor="#ffffff"] ;
530 -> 531 ;
532 [label=<gini = 0.0<br/>samples = 1<br/>value = [1, 0, 0, 0, 0, 0, 0, 0, 0, 0, 0, 0, 0, 0]>, fillcolor="#e58139"] ;
531 -> 532 ;
533 [label=<z_minmax &le; 22.537<br/>gini = 0.667<br/>samples = 3<br/>value = [0, 0, 0, 0, 0, 0, 0, 1, 1, 0, 1, 0, 0, 0]>, fillcolor="#ffffff"] ;
531 -> 533 ;
534 [label=<gini = 0.0<br/>samples = 1<br/>value = [0, 0, 0, 0, 0, 0, 0, 0, 1, 0, 0, 0, 0, 0]>, fillcolor="#3956e5"] ;
533 -> 534 ;
535 [label=<gini = 0.5<br/>samples = 2<br/>value = [0, 0, 0, 0, 0, 0, 0, 1, 0, 0, 1, 0, 0, 0]>, fillcolor="#ffffff"] ;
533 -> 535 ;
536 [label=<gini = 0.0<br/>samples = 1<br/>value = [0, 0, 0, 0, 0, 0, 0, 0, 0, 0, 0, 1, 0, 0]>, fillcolor="#e539d1"] ;
530 -> 536 ;
537 [label=<gini = 0.0<br/>samples = 25<br/>value = [25, 0, 0, 0, 0, 0, 0, 0, 0, 0, 0, 0, 0, 0]>, fillcolor="#e58139"] ;
529 -> 537 ;
538 [label=<y_integration &le; 32.24<br/>gini = 0.698<br/>samples = 13<br/>value = [6, 0, 0, 0, 0, 0, 0, 2, 0, 0, 3, 1, 0, 1]>, fillcolor="#f7d9c4"] ;
528 -> 538 ;
539 [label=<x_z &le; -0.355<br/>gini = 0.719<br/>samples = 8<br/>value = [2, 0, 0, 0, 0, 0, 0, 2, 0, 0, 3, 1, 0, 0]>, fillcolor="#f2defb"] ;
538 -> 539 ;
540 [label=<gini = 0.0<br/>samples = 2<br/>value = [2, 0, 0, 0, 0, 0, 0, 0, 0, 0, 0, 0, 0, 0]>, fillcolor="#e58139"] ;
539 -> 540 ;
541 [label=<x_z &le; 0.417<br/>gini = 0.611<br/>samples = 6<br/>value = [0, 0, 0, 0, 0, 0, 0, 2, 0, 0, 3, 1, 0, 0]>, fillcolor="#eccef8"] ;
539 -> 541 ;
542 [label=<gini = 0.0<br/>samples = 2<br/>value = [0, 0, 0, 0, 0, 0, 0, 2, 0, 0, 0, 0, 0, 0]>, fillcolor="#399de5"] ;
541 -> 542 ;
543 [label=<y_rms &le; 22.462<br/>gini = 0.375<br/>samples = 4<br/>value = [0, 0, 0, 0, 0, 0, 0, 0, 0, 0, 3, 1, 0, 0]>, fillcolor="#cb7bee"] ;
541 -> 543 ;
544 [label=<gini = 0.0<br/>samples = 1<br/>value = [0, 0, 0, 0, 0, 0, 0, 0, 0, 0, 0, 1, 0, 0]>, fillcolor="#e539d1"] ;
543 -> 544 ;
545 [label=<gini = 0.0<br/>samples = 3<br/>value = [0, 0, 0, 0, 0, 0, 0, 0, 0, 0, 3, 0, 0, 0]>, fillcolor="#b139e5"] ;
543 -> 545 ;
546 [label=<x_z &le; -0.107<br/>gini = 0.32<br/>samples = 5<br/>value = [4, 0, 0, 0, 0, 0, 0, 0, 0, 0, 0, 0, 0, 1]>, fillcolor="#eca06a"] ;
538 -> 546 ;
547 [label=<gini = 0.0<br/>samples = 4<br/>value = [4, 0, 0, 0, 0, 0, 0, 0, 0, 0, 0, 0, 0, 0]>, fillcolor="#e58139"] ;
546 -> 547 ;
548 [label=<gini = 0.0<br/>samples = 1<br/>value = [0, 0, 0, 0, 0, 0, 0, 0, 0, 0, 0, 0, 0, 1]>, fillcolor="#e5393c"] ;
546 -> 548 ;
549 [label=<z_minmax &le; 32.729<br/>gini = 0.5<br/>samples = 2<br/>value = [0, 0, 0, 0, 0, 0, 0, 0, 0, 0, 1, 0, 0, 1]>, fillcolor="#ffffff"] ;
527 -> 549 ;
550 [label=<gini = 0.0<br/>samples = 1<br/>value = [0, 0, 0, 0, 0, 0, 0, 0, 0, 0, 0, 0, 0, 1]>, fillcolor="#e5393c"] ;
549 -> 550 ;
551 [label=<gini = 0.0<br/>samples = 1<br/>value = [0, 0, 0, 0, 0, 0, 0, 0, 0, 0, 1, 0, 0, 0]>, fillcolor="#b139e5"] ;
549 -> 551 ;
552 [label=<x_y &le; -0.136<br/>gini = 0.785<br/>samples = 675<br/>value = [237, 19, 178, 21, 47, 61, 4, 1, 7, 46, 21, 0<br/>25, 8]>, fillcolor="#fcf0e7"] ;
398 -> 552 ;
553 [label=<y_minmax &le; 27.426<br/>gini = 0.758<br/>samples = 235<br/>value = [6, 16, 103, 18, 39, 19, 1, 0, 1, 9, 9, 0, 10<br/>4]>, fillcolor="#e7f7be"] ;
552 -> 553 ;
554 [label=<x_z &le; -0.717<br/>gini = 0.845<br/>samples = 122<br/>value = [3, 16, 6, 17, 36, 15, 1, 0, 1, 9, 6, 0, 8, 4]>, fillcolor="#dbfadf"] ;
553 -> 554 ;
555 [label=<y_std &le; 5.64<br/>gini = 0.64<br/>samples = 5<br/>value = [0, 0, 2, 0, 1, 2, 0, 0, 0, 0, 0, 0, 0, 0]>, fillcolor="#ffffff"] ;
554 -> 555 ;
556 [label=<x_mean &le; 33.517<br/>gini = 0.444<br/>samples = 3<br/>value = [0, 0, 2, 0, 0, 1, 0, 0, 0, 0, 0, 0, 0, 0]>, fillcolor="#dbf29c"] ;
555 -> 556 ;
557 [label=<gini = 0.0<br/>samples = 2<br/>value = [0, 0, 2, 0, 0, 0, 0, 0, 0, 0, 0, 0, 0, 0]>, fillcolor="#b7e539"] ;
556 -> 557 ;
558 [label=<gini = 0.0<br/>samples = 1<br/>value = [0, 0, 0, 0, 0, 1, 0, 0, 0, 0, 0, 0, 0, 0]>, fillcolor="#39e598"] ;
556 -> 558 ;
559 [label=<z_std &le; 2.584<br/>gini = 0.5<br/>samples = 2<br/>value = [0, 0, 0, 0, 1, 1, 0, 0, 0, 0, 0, 0, 0, 0]>, fillcolor="#ffffff"] ;
555 -> 559 ;
560 [label=<gini = 0.0<br/>samples = 1<br/>value = [0, 0, 0, 0, 1, 0, 0, 0, 0, 0, 0, 0, 0, 0]>, fillcolor="#39e54d"] ;
559 -> 560 ;
561 [label=<gini = 0.0<br/>samples = 1<br/>value = [0, 0, 0, 0, 0, 1, 0, 0, 0, 0, 0, 0, 0, 0]>, fillcolor="#39e598"] ;
559 -> 561 ;
562 [label=<x_minmax &le; 27.07<br/>gini = 0.842<br/>samples = 117<br/>value = [3, 16, 4, 17, 35, 13, 1, 0, 1, 9, 6, 0, 8, 4]>, fillcolor="#dbfadf"] ;
554 -> 562 ;
563 [label=<y_integration &le; 16.97<br/>gini = 0.754<br/>samples = 78<br/>value = [2, 5, 2, 0, 34, 13, 1, 0, 0, 8, 5, 0, 7, 1]>, fillcolor="#bff7c5"] ;
562 -> 563 ;
564 [label=<z_std &le; 3.098<br/>gini = 0.738<br/>samples = 15<br/>value = [0, 5, 0, 0, 5, 0, 0, 0, 0, 1, 2, 0, 2, 0]>, fillcolor="#ffffff"] ;
563 -> 564 ;
565 [label=<x_z &le; 0.183<br/>gini = 0.562<br/>samples = 8<br/>value = [0, 0, 0, 0, 5, 0, 0, 0, 0, 1, 1, 0, 1, 0]>, fillcolor="#8ef099"] ;
564 -> 565 ;
566 [label=<x_y &le; -0.527<br/>gini = 0.5<br/>samples = 2<br/>value = [0, 0, 0, 0, 0, 0, 0, 0, 0, 1, 1, 0, 0, 0]>, fillcolor="#ffffff"] ;
565 -> 566 ;
567 [label=<gini = 0.0<br/>samples = 1<br/>value = [0, 0, 0, 0, 0, 0, 0, 0, 0, 1, 0, 0, 0, 0]>, fillcolor="#6739e5"] ;
566 -> 567 ;
568 [label=<gini = 0.0<br/>samples = 1<br/>value = [0, 0, 0, 0, 0, 0, 0, 0, 0, 0, 1, 0, 0, 0]>, fillcolor="#b139e5"] ;
566 -> 568 ;
569 [label=<y_kurtosis &le; 5.768<br/>gini = 0.278<br/>samples = 6<br/>value = [0, 0, 0, 0, 5, 0, 0, 0, 0, 0, 0, 0, 1, 0]>, fillcolor="#61ea71"] ;
565 -> 569 ;
570 [label=<gini = 0.0<br/>samples = 5<br/>value = [0, 0, 0, 0, 5, 0, 0, 0, 0, 0, 0, 0, 0, 0]>, fillcolor="#39e54d"] ;
569 -> 570 ;
571 [label=<gini = 0.0<br/>samples = 1<br/>value = [0, 0, 0, 0, 0, 0, 0, 0, 0, 0, 0, 0, 1, 0]>, fillcolor="#e53986"] ;
569 -> 571 ;
572 [label=<y_mean &le; 36.611<br/>gini = 0.449<br/>samples = 7<br/>value = [0, 5, 0, 0, 0, 0, 0, 0, 0, 0, 1, 0, 1, 0]>, fillcolor="#eeda7b"] ;
564 -> 572 ;
573 [label=<gini = 0.0<br/>samples = 1<br/>value = [0, 0, 0, 0, 0, 0, 0, 0, 0, 0, 1, 0, 0, 0]>, fillcolor="#b139e5"] ;
572 -> 573 ;
574 [label=<x_std &le; 4.586<br/>gini = 0.278<br/>samples = 6<br/>value = [0, 5, 0, 0, 0, 0, 0, 0, 0, 0, 0, 0, 1, 0]>, fillcolor="#ead361"] ;
572 -> 574 ;
575 [label=<gini = 0.0<br/>samples = 1<br/>value = [0, 0, 0, 0, 0, 0, 0, 0, 0, 0, 0, 0, 1, 0]>, fillcolor="#e53986"] ;
574 -> 575 ;
576 [label=<gini = 0.0<br/>samples = 5<br/>value = [0, 5, 0, 0, 0, 0, 0, 0, 0, 0, 0, 0, 0, 0]>, fillcolor="#e5c839"] ;
574 -> 576 ;
577 [label=<y_mean &le; 34.73<br/>gini = 0.722<br/>samples = 63<br/>value = [2, 0, 2, 0, 29, 13, 1, 0, 0, 7, 3, 0, 5, 1]>, fillcolor="#c0f7c6"] ;
563 -> 577 ;
578 [label=<y_z &le; 0.837<br/>gini = 0.379<br/>samples = 13<br/>value = [0, 0, 0, 0, 2, 10, 0, 0, 0, 0, 0, 0, 1, 0]>, fillcolor="#6fecb4"] ;
577 -> 578 ;
579 [label=<y_rms &le; 38.643<br/>gini = 0.494<br/>samples = 9<br/>value = [0, 0, 0, 0, 2, 6, 0, 0, 0, 0, 0, 0, 1, 0]>, fillcolor="#8ef0c4"] ;
578 -> 579 ;
580 [label=<gini = 0.406<br/>samples = 8<br/>value = [0, 0, 0, 0, 1, 6, 0, 0, 0, 0, 0, 0, 1, 0]>, fillcolor="#72ecb5"] ;
579 -> 580 ;
581 [label=<gini = 0.0<br/>samples = 1<br/>value = [0, 0, 0, 0, 1, 0, 0, 0, 0, 0, 0, 0, 0, 0]>, fillcolor="#39e54d"] ;
579 -> 581 ;
582 [label=<gini = 0.0<br/>samples = 4<br/>value = [0, 0, 0, 0, 0, 4, 0, 0, 0, 0, 0, 0, 0, 0]>, fillcolor="#39e598"] ;
578 -> 582 ;
583 [label=<y_integration &le; 32.821<br/>gini = 0.671<br/>samples = 50<br/>value = [2, 0, 2, 0, 27, 3, 1, 0, 0, 7, 3, 0, 4, 1]>, fillcolor="#a3f3ac"] ;
577 -> 583 ;
584 [label=<y_z &le; 0.29<br/>gini = 0.622<br/>samples = 41<br/>value = [2, 0, 2, 0, 24, 0, 1, 0, 0, 6, 3, 0, 2, 1]>, fillcolor="#99f2a3"] ;
583 -> 584 ;
585 [label=<gini = 0.586<br/>samples = 39<br/>value = [2, 0, 1, 0, 24, 0, 1, 0, 0, 6, 3, 0, 1, 1]>, fillcolor="#93f19e"] ;
584 -> 585 ;
586 [label=<gini = 0.5<br/>samples = 2<br/>value = [0, 0, 1, 0, 0, 0, 0, 0, 0, 0, 0, 0, 1, 0]>, fillcolor="#ffffff"] ;
584 -> 586 ;
587 [label=<y_z &le; 0.038<br/>gini = 0.716<br/>samples = 9<br/>value = [0, 0, 0, 0, 3, 3, 0, 0, 0, 1, 0, 0, 2, 0]>, fillcolor="#ffffff"] ;
583 -> 587 ;
588 [label=<gini = 0.5<br/>samples = 4<br/>value = [0, 0, 0, 0, 2, 0, 0, 0, 0, 0, 0, 0, 2, 0]>, fillcolor="#ffffff"] ;
587 -> 588 ;
589 [label=<gini = 0.56<br/>samples = 5<br/>value = [0, 0, 0, 0, 1, 3, 0, 0, 0, 1, 0, 0, 0, 0]>, fillcolor="#9cf2cc"] ;
587 -> 589 ;
590 [label=<y_mean &le; 42.771<br/>gini = 0.718<br/>samples = 39<br/>value = [1, 11, 2, 17, 1, 0, 0, 0, 1, 1, 1, 0, 1, 3]>, fillcolor="#e0f9d5"] ;
562 -> 590 ;
591 [label=<z_std &le; 3.379<br/>gini = 0.629<br/>samples = 32<br/>value = [0, 9, 2, 17, 0, 0, 0, 0, 0, 0, 1, 0, 1, 2]>, fillcolor="#ccf6ba"] ;
590 -> 591 ;
592 [label=<z_std &le; 3.274<br/>gini = 0.5<br/>samples = 2<br/>value = [0, 0, 1, 0, 0, 0, 0, 0, 0, 0, 0, 0, 1, 0]>, fillcolor="#ffffff"] ;
591 -> 592 ;
593 [label=<gini = 0.0<br/>samples = 1<br/>value = [0, 0, 1, 0, 0, 0, 0, 0, 0, 0, 0, 0, 0, 0]>, fillcolor="#b7e539"] ;
592 -> 593 ;
594 [label=<gini = 0.0<br/>samples = 1<br/>value = [0, 0, 0, 0, 0, 0, 0, 0, 0, 0, 0, 0, 1, 0]>, fillcolor="#e53986"] ;
592 -> 594 ;
595 [label=<y_kurtosis &le; -1.16<br/>gini = 0.582<br/>samples = 30<br/>value = [0, 9, 1, 17, 0, 0, 0, 0, 0, 0, 1, 0, 0, 2]>, fillcolor="#c7f5b4"] ;
591 -> 595 ;
596 [label=<x_kurtosis &le; 0.786<br/>gini = 0.444<br/>samples = 3<br/>value = [0, 2, 0, 0, 0, 0, 0, 0, 0, 0, 0, 0, 0, 1]>, fillcolor="#f2e49c"] ;
595 -> 596 ;
597 [label=<gini = 0.0<br/>samples = 2<br/>value = [0, 2, 0, 0, 0, 0, 0, 0, 0, 0, 0, 0, 0, 0]>, fillcolor="#e5c839"] ;
596 -> 597 ;
598 [label=<gini = 0.0<br/>samples = 1<br/>value = [0, 0, 0, 0, 0, 0, 0, 0, 0, 0, 0, 0, 0, 1]>, fillcolor="#e5393c"] ;
596 -> 598 ;
599 [label=<z_integration &le; 23.124<br/>gini = 0.532<br/>samples = 27<br/>value = [0, 7, 1, 17, 0, 0, 0, 0, 0, 0, 1, 0, 0, 1]>, fillcolor="#b6f29c"] ;
595 -> 599 ;
600 [label=<gini = 0.0<br/>samples = 3<br/>value = [0, 0, 0, 3, 0, 0, 0, 0, 0, 0, 0, 0, 0, 0]>, fillcolor="#6de539"] ;
599 -> 600 ;
601 [label=<gini = 0.569<br/>samples = 24<br/>value = [0, 7, 1, 14, 0, 0, 0, 0, 0, 0, 1, 0, 0, 1]>, fillcolor="#c3f4ad"] ;
599 -> 601 ;
602 [label=<x_minmax &le; 35.599<br/>gini = 0.816<br/>samples = 7<br/>value = [1, 2, 0, 0, 1, 0, 0, 0, 1, 1, 0, 0, 0, 1]>, fillcolor="#fbf6de"] ;
590 -> 602 ;
603 [label=<x_z &le; 0.362<br/>gini = 0.8<br/>samples = 5<br/>value = [1, 0, 0, 0, 1, 0, 0, 0, 1, 1, 0, 0, 0, 1]>, fillcolor="#ffffff"] ;
602 -> 603 ;
604 [label=<y_rms &le; 33.932<br/>gini = 0.75<br/>samples = 4<br/>value = [1, 0, 0, 0, 1, 0, 0, 0, 1, 1, 0, 0, 0, 0]>, fillcolor="#ffffff"] ;
603 -> 604 ;
605 [label=<gini = 0.5<br/>samples = 2<br/>value = [1, 0, 0, 0, 0, 0, 0, 0, 0, 1, 0, 0, 0, 0]>, fillcolor="#ffffff"] ;
604 -> 605 ;
606 [label=<gini = 0.5<br/>samples = 2<br/>value = [0, 0, 0, 0, 1, 0, 0, 0, 1, 0, 0, 0, 0, 0]>, fillcolor="#ffffff"] ;
604 -> 606 ;
607 [label=<gini = 0.0<br/>samples = 1<br/>value = [0, 0, 0, 0, 0, 0, 0, 0, 0, 0, 0, 0, 0, 1]>, fillcolor="#e5393c"] ;
603 -> 607 ;
608 [label=<gini = 0.0<br/>samples = 2<br/>value = [0, 2, 0, 0, 0, 0, 0, 0, 0, 0, 0, 0, 0, 0]>, fillcolor="#e5c839"] ;
602 -> 608 ;
609 [label=<y_z &le; 0.503<br/>gini = 0.259<br/>samples = 113<br/>value = [3, 0, 97, 1, 3, 4, 0, 0, 0, 0, 3, 0, 2, 0]>, fillcolor="#c2e956"] ;
553 -> 609 ;
610 [label=<x_mean &le; 27.012<br/>gini = 0.205<br/>samples = 100<br/>value = [3, 0, 89, 1, 2, 0, 0, 0, 0, 0, 3, 0, 2, 0]>, fillcolor="#bfe84f"] ;
609 -> 610 ;
611 [label=<x_std &le; 8.805<br/>gini = 0.5<br/>samples = 2<br/>value = [1, 0, 0, 0, 0, 0, 0, 0, 0, 0, 1, 0, 0, 0]>, fillcolor="#ffffff"] ;
610 -> 611 ;
612 [label=<gini = 0.0<br/>samples = 1<br/>value = [1, 0, 0, 0, 0, 0, 0, 0, 0, 0, 0, 0, 0, 0]>, fillcolor="#e58139"] ;
611 -> 612 ;
613 [label=<gini = 0.0<br/>samples = 1<br/>value = [0, 0, 0, 0, 0, 0, 0, 0, 0, 0, 1, 0, 0, 0]>, fillcolor="#b139e5"] ;
611 -> 613 ;
614 [label=<y_rms &le; 43.816<br/>gini = 0.173<br/>samples = 98<br/>value = [2, 0, 89, 1, 2, 0, 0, 0, 0, 0, 2, 0, 2, 0]>, fillcolor="#bee74c"] ;
610 -> 614 ;
615 [label=<y_rms &le; 32.625<br/>gini = 0.434<br/>samples = 35<br/>value = [2, 0, 26, 1, 2, 0, 0, 0, 0, 0, 2, 0, 2, 0]>, fillcolor="#cbec6f"] ;
614 -> 615 ;
616 [label=<y_mean &le; 44.771<br/>gini = 0.722<br/>samples = 6<br/>value = [2, 0, 1, 1, 0, 0, 0, 0, 0, 0, 2, 0, 0, 0]>, fillcolor="#ffffff"] ;
615 -> 616 ;
617 [label=<x_std &le; 8.275<br/>gini = 0.72<br/>samples = 5<br/>value = [1, 0, 1, 1, 0, 0, 0, 0, 0, 0, 2, 0, 0, 0]>, fillcolor="#eccef8"] ;
616 -> 617 ;
618 [label=<gini = 0.444<br/>samples = 3<br/>value = [1, 0, 0, 0, 0, 0, 0, 0, 0, 0, 2, 0, 0, 0]>, fillcolor="#d89cf2"] ;
617 -> 618 ;
619 [label=<gini = 0.5<br/>samples = 2<br/>value = [0, 0, 1, 1, 0, 0, 0, 0, 0, 0, 0, 0, 0, 0]>, fillcolor="#ffffff"] ;
617 -> 619 ;
620 [label=<gini = 0.0<br/>samples = 1<br/>value = [1, 0, 0, 0, 0, 0, 0, 0, 0, 0, 0, 0, 0, 0]>, fillcolor="#e58139"] ;
616 -> 620 ;
621 [label=<x_kurtosis &le; -1.419<br/>gini = 0.247<br/>samples = 29<br/>value = [0, 0, 25, 0, 2, 0, 0, 0, 0, 0, 0, 0, 2, 0]>, fillcolor="#c2e956"] ;
615 -> 621 ;
622 [label=<x_rms &le; 38.876<br/>gini = 0.5<br/>samples = 2<br/>value = [0, 0, 1, 0, 0, 0, 0, 0, 0, 0, 0, 0, 1, 0]>, fillcolor="#ffffff"] ;
621 -> 622 ;
623 [label=<gini = 0.0<br/>samples = 1<br/>value = [0, 0, 0, 0, 0, 0, 0, 0, 0, 0, 0, 0, 1, 0]>, fillcolor="#e53986"] ;
622 -> 623 ;
624 [label=<gini = 0.0<br/>samples = 1<br/>value = [0, 0, 1, 0, 0, 0, 0, 0, 0, 0, 0, 0, 0, 0]>, fillcolor="#b7e539"] ;
622 -> 624 ;
625 [label=<z_std &le; 3.602<br/>gini = 0.203<br/>samples = 27<br/>value = [0, 0, 24, 0, 2, 0, 0, 0, 0, 0, 0, 0, 1, 0]>, fillcolor="#c0e851"] ;
621 -> 625 ;
626 [label=<gini = 0.444<br/>samples = 3<br/>value = [0, 0, 1, 0, 2, 0, 0, 0, 0, 0, 0, 0, 0, 0]>, fillcolor="#9cf2a6"] ;
625 -> 626 ;
627 [label=<gini = 0.08<br/>samples = 24<br/>value = [0, 0, 23, 0, 0, 0, 0, 0, 0, 0, 0, 0, 1, 0]>, fillcolor="#bae642"] ;
625 -> 627 ;
628 [label=<gini = 0.0<br/>samples = 63<br/>value = [0, 0, 63, 0, 0, 0, 0, 0, 0, 0, 0, 0, 0, 0]>, fillcolor="#b7e539"] ;
614 -> 628 ;
629 [label=<x_y &le; -0.621<br/>gini = 0.521<br/>samples = 13<br/>value = [0, 0, 8, 0, 1, 4, 0, 0, 0, 0, 0, 0, 0, 0]>, fillcolor="#dff3a7"] ;
609 -> 629 ;
630 [label=<gini = 0.0<br/>samples = 1<br/>value = [0, 0, 0, 0, 1, 0, 0, 0, 0, 0, 0, 0, 0, 0]>, fillcolor="#39e54d"] ;
629 -> 630 ;
631 [label=<y_z &le; 0.787<br/>gini = 0.444<br/>samples = 12<br/>value = [0, 0, 8, 0, 0, 4, 0, 0, 0, 0, 0, 0, 0, 0]>, fillcolor="#dbf29c"] ;
629 -> 631 ;
632 [label=<x_std &le; 2.967<br/>gini = 0.397<br/>samples = 11<br/>value = [0, 0, 8, 0, 0, 3, 0, 0, 0, 0, 0, 0, 0, 0]>, fillcolor="#d2ef83"] ;
631 -> 632 ;
633 [label=<gini = 0.0<br/>samples = 3<br/>value = [0, 0, 0, 0, 0, 3, 0, 0, 0, 0, 0, 0, 0, 0]>, fillcolor="#39e598"] ;
632 -> 633 ;
634 [label=<gini = 0.0<br/>samples = 8<br/>value = [0, 0, 8, 0, 0, 0, 0, 0, 0, 0, 0, 0, 0, 0]>, fillcolor="#b7e539"] ;
632 -> 634 ;
635 [label=<gini = 0.0<br/>samples = 1<br/>value = [0, 0, 0, 0, 0, 1, 0, 0, 0, 0, 0, 0, 0, 0]>, fillcolor="#39e598"] ;
631 -> 635 ;
636 [label=<z_rms &le; 37.971<br/>gini = 0.676<br/>samples = 440<br/>value = [231, 3, 75, 3, 8, 42, 3, 1, 6, 37, 12, 0, 15<br/>4]>, fillcolor="#f4c9aa"] ;
552 -> 636 ;
637 [label=<x_z &le; 0.847<br/>gini = 0.584<br/>samples = 370<br/>value = [231, 3, 10, 3, 7, 41, 3, 1, 5, 37, 12, 0, 13<br/>4]>, fillcolor="#f0b68d"] ;
636 -> 637 ;
638 [label=<y_z &le; 0.018<br/>gini = 0.571<br/>samples = 364<br/>value = [231, 2, 10, 2, 7, 40, 3, 1, 5, 37, 9, 0, 13<br/>4]>, fillcolor="#f0b58a"] ;
637 -> 638 ;
639 [label=<x_z &le; -0.386<br/>gini = 0.419<br/>samples = 303<br/>value = [228, 1, 6, 1, 6, 4, 3, 0, 3, 34, 4, 0, 10, 3]>, fillcolor="#eca470"] ;
638 -> 639 ;
640 [label=<y_minmax &le; 29.528<br/>gini = 0.318<br/>samples = 238<br/>value = [195, 0, 5, 0, 1, 3, 3, 0, 0, 22, 1, 0, 7, 1]>, fillcolor="#ea9a60"] ;
639 -> 640 ;
641 [label=<x_mean &le; 33.133<br/>gini = 0.641<br/>samples = 85<br/>value = [46, 0, 5, 0, 1, 2, 3, 0, 0, 20, 1, 0, 6, 1]>, fillcolor="#f5cdb0"] ;
640 -> 641 ;
642 [label=<x_minmax &le; 40.844<br/>gini = 0.557<br/>samples = 74<br/>value = [46, 0, 5, 0, 0, 0, 1, 0, 0, 16, 0, 0, 5, 1]>, fillcolor="#f2be99"] ;
641 -> 642 ;
643 [label=<gini = 0.664<br/>samples = 31<br/>value = [4, 0, 5, 0, 0, 0, 1, 0, 0, 16, 0, 0, 5, 0]>, fillcolor="#bfabf4"] ;
642 -> 643 ;
644 [label=<gini = 0.045<br/>samples = 43<br/>value = [42, 0, 0, 0, 0, 0, 0, 0, 0, 0, 0, 0, 0, 1]>, fillcolor="#e6843e"] ;
642 -> 644 ;
645 [label=<x_y &le; 0.751<br/>gini = 0.777<br/>samples = 11<br/>value = [0, 0, 0, 0, 1, 2, 2, 0, 0, 4, 1, 0, 1, 0]>, fillcolor="#ddd3f9"] ;
641 -> 645 ;
646 [label=<gini = 0.812<br/>samples = 8<br/>value = [0, 0, 0, 0, 1, 2, 2, 0, 0, 1, 1, 0, 1, 0]>, fillcolor="#ffffff"] ;
645 -> 646 ;
647 [label=<gini = 0.0<br/>samples = 3<br/>value = [0, 0, 0, 0, 0, 0, 0, 0, 0, 3, 0, 0, 0, 0]>, fillcolor="#6739e5"] ;
645 -> 647 ;
648 [label=<x_minmax &le; 28.254<br/>gini = 0.051<br/>samples = 153<br/>value = [149, 0, 0, 0, 0, 1, 0, 0, 0, 2, 0, 0, 1, 0]>, fillcolor="#e6843e"] ;
640 -> 648 ;
649 [label=<x_mean &le; 35.71<br/>gini = 0.081<br/>samples = 96<br/>value = [92, 0, 0, 0, 0, 1, 0, 0, 0, 2, 0, 0, 1, 0]>, fillcolor="#e68641"] ;
648 -> 649 ;
650 [label=<gini = 0.062<br/>samples = 95<br/>value = [92, 0, 0, 0, 0, 0, 0, 0, 0, 2, 0, 0, 1, 0]>, fillcolor="#e6853f"] ;
649 -> 650 ;
651 [label=<gini = 0.0<br/>samples = 1<br/>value = [0, 0, 0, 0, 0, 1, 0, 0, 0, 0, 0, 0, 0, 0]>, fillcolor="#39e598"] ;
649 -> 651 ;
652 [label=<gini = 0.0<br/>samples = 57<br/>value = [57, 0, 0, 0, 0, 0, 0, 0, 0, 0, 0, 0, 0, 0]>, fillcolor="#e58139"] ;
648 -> 652 ;
653 [label=<z_rms &le; 32.394<br/>gini = 0.694<br/>samples = 65<br/>value = [33, 1, 1, 1, 5, 1, 0, 0, 3, 12, 3, 0, 3, 2]>, fillcolor="#f5cdb1"] ;
639 -> 653 ;
654 [label=<x_minmax &le; 27.919<br/>gini = 0.629<br/>samples = 46<br/>value = [27, 1, 0, 1, 5, 0, 0, 0, 3, 3, 2, 0, 2, 2]>, fillcolor="#f1bb95"] ;
653 -> 654 ;
655 [label=<z_mean &le; 43.376<br/>gini = 0.764<br/>samples = 23<br/>value = [9, 0, 0, 0, 5, 0, 0, 0, 2, 3, 1, 0, 2, 1]>, fillcolor="#f9e3d3"] ;
654 -> 655 ;
656 [label=<gini = 0.278<br/>samples = 6<br/>value = [5, 0, 0, 0, 0, 0, 0, 0, 0, 0, 0, 0, 0, 1]>, fillcolor="#ea9a61"] ;
655 -> 656 ;
657 [label=<gini = 0.796<br/>samples = 17<br/>value = [4, 0, 0, 0, 5, 0, 0, 0, 2, 3, 1, 0, 2, 0]>, fillcolor="#f0fdf1"] ;
655 -> 657 ;
658 [label=<x_minmax &le; 39.025<br/>gini = 0.378<br/>samples = 23<br/>value = [18, 1, 0, 1, 0, 0, 0, 0, 1, 0, 1, 0, 0, 1]>, fillcolor="#eb9e66"] ;
654 -> 658 ;
659 [label=<gini = 0.75<br/>samples = 4<br/>value = [1, 1, 0, 0, 0, 0, 0, 0, 1, 0, 1, 0, 0, 0]>, fillcolor="#ffffff"] ;
658 -> 659 ;
660 [label=<gini = 0.194<br/>samples = 19<br/>value = [17, 0, 0, 1, 0, 0, 0, 0, 0, 0, 0, 0, 0, 1]>, fillcolor="#e88f4f"] ;
658 -> 660 ;
661 [label=<y_mean &le; 50.866<br/>gini = 0.665<br/>samples = 19<br/>value = [6, 0, 1, 0, 0, 1, 0, 0, 0, 9, 1, 0, 1, 0]>, fillcolor="#dcd1f9"] ;
653 -> 661 ;
662 [label=<x_integration &le; 34.553<br/>gini = 0.604<br/>samples = 15<br/>value = [2, 0, 1, 0, 0, 1, 0, 0, 0, 9, 1, 0, 1, 0]>, fillcolor="#ad94f1"] ;
661 -> 662 ;
663 [label=<gini = 0.485<br/>samples = 13<br/>value = [2, 0, 1, 0, 0, 0, 0, 0, 0, 9, 0, 0, 1, 0]>, fillcolor="#9e81ee"] ;
662 -> 663 ;
664 [label=<gini = 0.5<br/>samples = 2<br/>value = [0, 0, 0, 0, 0, 1, 0, 0, 0, 0, 1, 0, 0, 0]>, fillcolor="#ffffff"] ;
662 -> 664 ;
665 [label=<gini = 0.0<br/>samples = 4<br/>value = [4, 0, 0, 0, 0, 0, 0, 0, 0, 0, 0, 0, 0, 0]>, fillcolor="#e58139"] ;
661 -> 665 ;
666 [label=<x_y &le; 0.039<br/>gini = 0.631<br/>samples = 61<br/>value = [3, 1, 4, 1, 1, 36, 0, 1, 2, 3, 5, 0, 3, 1]>, fillcolor="#91f1c6"] ;
638 -> 666 ;
667 [label=<z_rms &le; 34.909<br/>gini = 0.76<br/>samples = 10<br/>value = [0, 0, 4, 1, 0, 1, 0, 0, 0, 0, 2, 0, 1, 1]>, fillcolor="#edf8ce"] ;
666 -> 667 ;
668 [label=<y_z &le; 0.137<br/>gini = 0.75<br/>samples = 4<br/>value = [0, 0, 0, 1, 0, 0, 0, 0, 0, 0, 1, 0, 1, 1]>, fillcolor="#ffffff"] ;
667 -> 668 ;
669 [label=<gini = 0.0<br/>samples = 1<br/>value = [0, 0, 0, 1, 0, 0, 0, 0, 0, 0, 0, 0, 0, 0]>, fillcolor="#6de539"] ;
668 -> 669 ;
670 [label=<z_rms &le; 31.194<br/>gini = 0.667<br/>samples = 3<br/>value = [0, 0, 0, 0, 0, 0, 0, 0, 0, 0, 1, 0, 1, 1]>, fillcolor="#ffffff"] ;
668 -> 670 ;
671 [label=<gini = 0.0<br/>samples = 1<br/>value = [0, 0, 0, 0, 0, 0, 0, 0, 0, 0, 1, 0, 0, 0]>, fillcolor="#b139e5"] ;
670 -> 671 ;
672 [label=<gini = 0.5<br/>samples = 2<br/>value = [0, 0, 0, 0, 0, 0, 0, 0, 0, 0, 0, 0, 1, 1]>, fillcolor="#ffffff"] ;
670 -> 672 ;
673 [label=<x_z &le; 0.254<br/>gini = 0.5<br/>samples = 6<br/>value = [0, 0, 4, 0, 0, 1, 0, 0, 0, 0, 1, 0, 0, 0]>, fillcolor="#d4ef88"] ;
667 -> 673 ;
674 [label=<y_z &le; 0.855<br/>gini = 0.32<br/>samples = 5<br/>value = [0, 0, 4, 0, 0, 1, 0, 0, 0, 0, 0, 0, 0, 0]>, fillcolor="#c9ec6a"] ;
673 -> 674 ;
675 [label=<gini = 0.0<br/>samples = 4<br/>value = [0, 0, 4, 0, 0, 0, 0, 0, 0, 0, 0, 0, 0, 0]>, fillcolor="#b7e539"] ;
674 -> 675 ;
676 [label=<gini = 0.0<br/>samples = 1<br/>value = [0, 0, 0, 0, 0, 1, 0, 0, 0, 0, 0, 0, 0, 0]>, fillcolor="#39e598"] ;
674 -> 676 ;
677 [label=<gini = 0.0<br/>samples = 1<br/>value = [0, 0, 0, 0, 0, 0, 0, 0, 0, 0, 1, 0, 0, 0]>, fillcolor="#b139e5"] ;
673 -> 677 ;
678 [label=<x_std &le; 3.699<br/>gini = 0.514<br/>samples = 51<br/>value = [3, 1, 0, 0, 1, 35, 0, 1, 2, 3, 3, 0, 2, 0]>, fillcolor="#7beeba"] ;
666 -> 678 ;
679 [label=<x_kurtosis &le; 0.457<br/>gini = 0.267<br/>samples = 41<br/>value = [0, 0, 0, 0, 1, 35, 0, 0, 1, 1, 2, 0, 1, 0]>, fillcolor="#57e9a8"] ;
678 -> 679 ;
680 [label=<x_kurtosis &le; 0.212<br/>gini = 0.212<br/>samples = 35<br/>value = [0, 0, 0, 0, 1, 31, 0, 0, 0, 1, 1, 0, 1, 0]>, fillcolor="#50e8a4"] ;
679 -> 680 ;
681 [label=<gini = 0.181<br/>samples = 31<br/>value = [0, 0, 0, 0, 0, 28, 0, 0, 0, 1, 1, 0, 1, 0]>, fillcolor="#4de8a2"] ;
680 -> 681 ;
682 [label=<gini = 0.375<br/>samples = 4<br/>value = [0, 0, 0, 0, 1, 3, 0, 0, 0, 0, 0, 0, 0, 0]>, fillcolor="#7beeba"] ;
680 -> 682 ;
683 [label=<y_rms &le; 34.042<br/>gini = 0.5<br/>samples = 6<br/>value = [0, 0, 0, 0, 0, 4, 0, 0, 1, 0, 1, 0, 0, 0]>, fillcolor="#88efc1"] ;
679 -> 683 ;
